<?xml version="1.0"?>
<opencv_storage>
<cascade>
  <stageType>BOOST</stageType>
  <featureType>LBP</featureType>
  <height>32</height>
  <width>32</width>
  <stageParams>
    <boostType>LB</boostType>
    <minHitRate>9.9500000476837158e-001</minHitRate>
    <maxFalseAlarm>5.0000000000000000e-001</maxFalseAlarm>
    <weightTrimRate>9.4999999999999996e-001</weightTrimRate>
    <maxDepth>1</maxDepth>
    <maxWeakCount>200</maxWeakCount></stageParams>
  <featureParams>
    <maxCatCount>256</maxCatCount>
    <featSize>1</featSize></featureParams>
  <stageNum>20</stageNum>
  <stages>
    <!-- stage 0 -->
    <_>
      <maxWeakCount>7</maxWeakCount>
      <stageThreshold>-1.9214227199554443e+000</stageThreshold>
      <weakClassifiers>
        <_>
          <internalNodes>
            0 -1 142 4587520 2073508083 1114388 -100848385 -1511919425
            971474305 63291390 -406065</internalNodes>
          <leafValues>
            -1.1895139217376709e+000 9.6025323867797852e-001</leafValues></_>
        <_>
          <internalNodes>
            0 -1 87 -1968002558 -1336079573 -720129123 -228713730
            546482658 -1147270709 2075851467 -1074851969</internalNodes>
          <leafValues>
            -1.1262898445129395e+000 7.2043126821517944e-001</leafValues></_>
        <_>
          <internalNodes>
            0 -1 260 -1001135036 68217782 1545272980 -512634659
            -1047431450 -258449039 -504651369 -436739085</internalNodes>
          <leafValues>
            -1.0883628129959106e+000 7.1892541646957397e-001</leafValues></_>
        <_>
          <internalNodes>
            0 -1 24 -100472602 303562933 -1031629899 -135079558
            809513553 -969699317 1988213455 -1486641349</internalNodes>
          <leafValues>
            -1.0568205118179321e+000 7.1395748853683472e-001</leafValues></_>
        <_>
          <internalNodes>
            0 -1 39 1382542973 177098891 -1596489718 -1207717351
            1410689353 1073765139 1112883204 1618437107</internalNodes>
          <leafValues>
            -1.0058578252792358e+000 6.1194264888763428e-001</leafValues></_>
        <_>
          <internalNodes>
            0 -1 132 955112851 972945407 -589366533 1493019831 268281240
            1824366071 -1896026434 -1610498221</internalNodes>
          <leafValues>
            -7.2760415077209473e-001 8.3340919017791748e-001</leafValues></_>
        <_>
          <internalNodes>
            0 -1 97 -189285559 2062499453 -1792098949 942320190
            -1092151531 -1434976644 -151021138 -531114941</internalNodes>
          <leafValues>
            -7.1307563781738281e-001 8.0609762668609619e-001</leafValues></_></weakClassifiers></_>
    <!-- stage 1 -->
    <_>
      <maxWeakCount>9</maxWeakCount>
      <stageThreshold>-1.5593589544296265e+000</stageThreshold>
      <weakClassifiers>
        <_>
          <internalNodes>
            0 -1 159 -134240118 -119041 1064643243 2076150435 -537023569
            -12582913 -16831573 -1073774422</internalNodes>
          <leafValues>
            -7.5481170415878296e-001 1.0315235853195190e+000</leafValues></_>
        <_>
          <internalNodes>
            0 -1 57 -218107670 277281506 -687814661 1440701951
            1344983280 -1314340615 -74718225 -3345489</internalNodes>
          <leafValues>
            -8.4767794609069824e-001 8.0567926168441772e-001</leafValues></_>
        <_>
          <internalNodes>
            0 -1 89 -2130989117 -20995 -805310605 -1241536905 116729070
            -319342849 83727857 -1929403147</internalNodes>
          <leafValues>
            -7.7622687816619873e-001 8.4386789798736572e-001</leafValues></_>
        <_>
          <internalNodes>
            0 -1 52 2040788970 285247871 -1596735334 604034323
            1673988184 1745045793 -1437654087 -814220549</internalNodes>
          <leafValues>
            -7.7224946022033691e-001 7.6739597320556641e-001</leafValues></_>
        <_>
          <internalNodes>
            0 -1 29 -740819237 -207954194 -745862982 1883352164
            -211551267 -410811986 1912733457 -1214906766</internalNodes>
          <leafValues>
            -7.9142391681671143e-001 7.4391591548919678e-001</leafValues></_>
        <_>
          <internalNodes>
            0 -1 235 -1912590992 -10977016 1358954832 -48343758
            -2013080623 -494303096 1116717548 -1359460268</internalNodes>
          <leafValues>
            -8.7780261039733887e-001 6.5451437234878540e-001</leafValues></_>
        <_>
          <internalNodes>
            0 -1 257 830206530 88328704 478363829 -1583291667 1759708020
            268653264 -1161021255 -1515716681</internalNodes>
          <leafValues>
            -1.0618751049041748e+000 5.1409447193145752e-001</leafValues></_>
        <_>
          <internalNodes>
            0 -1 221 1208287595 1060708353 -1006531368 310838576
            -1131767554 -1338462661 2074184698 -1707070713</internalNodes>
          <leafValues>
            -8.1100839376449585e-001 6.3549542427062988e-001</leafValues></_>
        <_>
          <internalNodes>
            0 -1 36 -287644283 -1919655806 -1038849510 1204997445
            1077633855 182469274 38036054 1104140117</internalNodes>
          <leafValues>
            -9.4295752048492432e-001 5.7892668247222900e-001</leafValues></_></weakClassifiers></_>
    <!-- stage 2 -->
    <_>
      <maxWeakCount>12</maxWeakCount>
      <stageThreshold>-2.5354640483856201e+000</stageThreshold>
      <weakClassifiers>
        <_>
          <internalNodes>
            0 -1 94 -536696302 -116196765 -632956397 -82276078
            1883319168 -234717056 2051059912 -1052953</internalNodes>
          <leafValues>
            -8.7156480550765991e-001 7.2846764326095581e-001</leafValues></_>
        <_>
          <internalNodes>
            0 -1 195 -1039947870 143744 822444352 -571349304 814216183
            48761259 -238050928 -977933841</internalNodes>
          <leafValues>
            -8.2815641164779663e-001 6.8973410129547119e-001</leafValues></_>
        <_>
          <internalNodes>
            0 -1 271 1943425607 1394074911 -646163617 40096847
            -508036370 -656178933 1230936559 -797704885</internalNodes>
          <leafValues>
            -7.1353220939636230e-001 8.0216032266616821e-001</leafValues></_>
        <_>
          <internalNodes>
            0 -1 35 -297719158 -1165848126 -610502201 -2165367 842143876
            774318107 -1383900445 2137679703</internalNodes>
          <leafValues>
            -1.1900092363357544e+000 4.6815416216850281e-001</leafValues></_>
        <_>
          <internalNodes>
            0 -1 255 1929336559 1088603746 -502591270 46171126
            1909293219 1418743827 -1576029101 -866987530</internalNodes>
          <leafValues>
            -7.7739912271499634e-001 6.5282207727432251e-001</leafValues></_>
        <_>
          <internalNodes>
            0 -1 216 -161163056 2052608656 554459 2073566685 -1604277772
            -250576680 965148668 -1075183304</internalNodes>
          <leafValues>
            -7.1828120946884155e-001 7.1648752689361572e-001</leafValues></_>
        <_>
          <internalNodes>
            0 -1 2 -267913479 -1688707362 -1659868162 -547540520 7173043
            -1953791869 1139262215 123885249</internalNodes>
          <leafValues>
            -8.4812211990356445e-001 6.2310600280761719e-001</leafValues></_>
        <_>
          <internalNodes>
            0 -1 208 1975874989 533890036 1767901725 425263839 61569144
            1761722377 19874397 256860781</internalNodes>
          <leafValues>
            -1.0972008705139160e+000 4.4308975338935852e-001</leafValues></_>
        <_>
          <internalNodes>
            0 -1 279 -808458339 -1139101608 -1064218575 -179548148
            -2115250485 -1986116438 -275037135 -976019456</internalNodes>
          <leafValues>
            -7.6319849491119385e-001 6.6810464859008789e-001</leafValues></_>
        <_>
          <internalNodes>
            0 -1 78 -361066689 -1491423507 -537518211 -168075780
            70995903 -318918657 1172827211 -940061449</internalNodes>
          <leafValues>
            -5.3659266233444214e-001 8.5571575164794922e-001</leafValues></_>
        <_>
          <internalNodes>
            0 -1 74 1948418224 -1621420720 -1879013797 -824193583
            1636330171 -905312088 1906967055 81987361</internalNodes>
          <leafValues>
            -9.1205793619155884e-001 5.0409674644470215e-001</leafValues></_>
        <_>
          <internalNodes>
            0 -1 313 -689442047 1092012311 -2145316472 -481967990
            1342905354 1946353742 1418537355 -996095674</internalNodes>
          <leafValues>
            -6.8663299083709717e-001 6.2766879796981812e-001</leafValues></_></weakClassifiers></_>
    <!-- stage 3 -->
    <_>
      <maxWeakCount>12</maxWeakCount>
      <stageThreshold>-2.6774764060974121e+000</stageThreshold>
      <weakClassifiers>
        <_>
          <internalNodes>
            0 -1 156 -70276934 -1178884389 -1141642581 2011144873
            973028267 -69697 2147449515 -38827862</internalNodes>
          <leafValues>
            -6.2309366464614868e-001 8.3312314748764038e-001</leafValues></_>
        <_>
          <internalNodes>
            0 -1 69 -96225021 1383322870 -1248716520 268435986
            -352860091 943067444 -1413499074 -988285549</internalNodes>
          <leafValues>
            -8.8621115684509277e-001 5.5910080671310425e-001</leafValues></_>
        <_>
          <internalNodes>
            0 -1 264 615446010 -52667846 1498484996 -687850230
            -737608001 -353728376 -527768838 -893138807</internalNodes>
          <leafValues>
            -6.8209153413772583e-001 7.0317947864532471e-001</leafValues></_>
        <_>
          <internalNodes>
            0 -1 192 1888094212 904140849 -1080863236 -1259965667
            -62289748 -606158807 -375102583 -1350746297</internalNodes>
          <leafValues>
            -1.0013734102249146e+000 4.8559620976448059e-001</leafValues></_>
        <_>
          <internalNodes>
            0 -1 145 707405604 1568202894 -1584012013 -42131262
            1006777232 -628930407 -1557649237 -1615920991</internalNodes>
          <leafValues>
            -7.6277041435241699e-001 6.1815011501312256e-001</leafValues></_>
        <_>
          <internalNodes>
            0 -1 9 -1779248576 143631310 -1811839578 -1261537813
            -1208346620 1653080505 -418881197 1663905599</internalNodes>
          <leafValues>
            -1.2389982938766479e+000 3.8211339712142944e-001</leafValues></_>
        <_>
          <internalNodes>
            0 -1 229 -526414334 2022932934 547487905 1909772395
            1342190146 956448773 1626883050 -11281957</internalNodes>
          <leafValues>
            -7.0902967453002930e-001 6.7822027206420898e-001</leafValues></_>
        <_>
          <internalNodes>
            0 -1 151 -867423102 663241406 226613913 1142086049
            -135765081 -880524992 -236774678 946875315</internalNodes>
          <leafValues>
            -1.0064038038253784e+000 4.9859827756881714e-001</leafValues></_>
        <_>
          <internalNodes>
            0 -1 1 -727714079 -3352950 -712947448 -280515614 1237917655
            176785807 1137136663 95895778</internalNodes>
          <leafValues>
            -9.9799966812133789e-001 4.3639504909515381e-001</leafValues></_>
        <_>
          <internalNodes>
            0 -1 282 1307828798 -1850152982 -16834819 854509542
            -1259072350 -1242081817 -1587233473 -600188937</internalNodes>
          <leafValues>
            -6.2725204229354858e-001 7.1797811985015869e-001</leafValues></_>
        <_>
          <internalNodes>
            0 -1 20 -8390749 146767670 788441006 -265229571 1484072332
            1853882223 -402690676 -1184371824</internalNodes>
          <leafValues>
            -6.0695135593414307e-001 7.1963649988174438e-001</leafValues></_>
        <_>
          <internalNodes>
            0 -1 314 -967579742 -2021024359 -1786766607 668242400
            1083949057 1149337728 1342210640 1691871458</internalNodes>
          <leafValues>
            -9.4517284631729126e-001 4.6436533331871033e-001</leafValues></_></weakClassifiers></_>
    <!-- stage 4 -->
    <_>
      <maxWeakCount>15</maxWeakCount>
      <stageThreshold>-2.6577582359313965e+000</stageThreshold>
      <weakClassifiers>
        <_>
          <internalNodes>
            0 -1 98 -231474829 -75500681 1073476698 1348614706
            -134761164 -1635950732 -132150 -178798062</internalNodes>
          <leafValues>
            -6.3373720645904541e-001 7.5632911920547485e-001</leafValues></_>
        <_>
          <internalNodes>
            0 -1 273 -618677065 1329295159 1195999264 1805438302
            995970820 172659219 -1294258552 1913576043</internalNodes>
          <leafValues>
            -8.1068462133407593e-001 5.5916535854339600e-001</leafValues></_>
        <_>
          <internalNodes>
            0 -1 248 153385361 420494448 -1115709455 -1081787408
            1035926781 -1075003393 -1615904836 -1081129077</internalNodes>
          <leafValues>
            -5.5526775121688843e-001 8.1437116861343384e-001</leafValues></_>
        <_>
          <internalNodes>
            0 -1 281 -1545238196 1968531534 269458974 1883618079
            1550424620 491458051 -754400632 -261032381</internalNodes>
          <leafValues>
            -8.0122131109237671e-001 5.7772594690322876e-001</leafValues></_>
        <_>
          <internalNodes>
            0 -1 218 -396102433 -922840761 214057679 -386232178
            -1718914833 -1125422454 816848918 1936322837</internalNodes>
          <leafValues>
            -8.5208350419998169e-001 5.4018497467041016e-001</leafValues></_>
        <_>
          <internalNodes>
            0 -1 164 17769520 991172176 -1996124871 -1144663600
            1493770901 -1434414455 814417051 -1463851872</internalNodes>
          <leafValues>
            -9.1001492738723755e-001 4.8874482512474060e-001</leafValues></_>
        <_>
          <internalNodes>
            0 -1 306 -537665265 -747439456 2145038222 2144861734
            771719696 1083438965 -1207980150 -773718349</internalNodes>
          <leafValues>
            -5.1220977306365967e-001 7.8767514228820801e-001</leafValues></_>
        <_>
          <internalNodes>
            0 -1 68 -231505325 -1561669602 -617414417 586340729
            -2124370954 -576155398 1871673295 1961287454</internalNodes>
          <leafValues>
            -6.3267111778259277e-001 6.5747576951980591e-001</leafValues></_>
        <_>
          <internalNodes>
            0 -1 223 1707934445 -1723187558 335614431 2132746713
            1233867039 403425387 1770999919 1224427026</internalNodes>
          <leafValues>
            -9.2360442876815796e-001 4.7550126910209656e-001</leafValues></_>
        <_>
          <internalNodes>
            0 -1 73 -1967994633 -1181536955 357806419 -113208923
            -2073838973 -20234038 -2028491517 -2033819817</internalNodes>
          <leafValues>
            -7.3181736469268799e-001 5.2683317661285400e-001</leafValues></_>
        <_>
          <internalNodes>
            0 -1 19 -87567150 -1685750969 -1014398126 -1081474858
            1080341571 -206475197 1728307865 -721519054</internalNodes>
          <leafValues>
            -6.2722963094711304e-001 6.4238882064819336e-001</leafValues></_>
        <_>
          <internalNodes>
            0 -1 131 -636597162 -388837260 -1139750657 -250584695
            -735002364 -55032911 -593568568 -550484917</internalNodes>
          <leafValues>
            -6.1948162317276001e-001 6.2999135255813599e-001</leafValues></_>
        <_>
          <internalNodes>
            0 -1 212 -1505713408 -1530748672 -1178565312 -485313636
            -782915035 1083703353 -477763244 -1884838452</internalNodes>
          <leafValues>
            -8.5174459218978882e-001 4.7884973883628845e-001</leafValues></_>
        <_>
          <internalNodes>
            0 -1 270 -833107187 -543750830 83890397 -1963876875
            865306600 -1252040092 975684863 -1173345679</internalNodes>
          <leafValues>
            -5.9653878211975098e-001 6.2800240516662598e-001</leafValues></_>
        <_>
          <internalNodes>
            0 -1 196 -904916784 1371803863 1140883870 -620232232
            -2130697440 679477265 -1316214322 -1076690614</internalNodes>
          <leafValues>
            -6.1073154211044312e-001 6.0607665777206421e-001</leafValues></_></weakClassifiers></_>
    <!-- stage 5 -->
    <_>
      <maxWeakCount>14</maxWeakCount>
      <stageThreshold>-2.3303639888763428e+000</stageThreshold>
      <weakClassifiers>
        <_>
          <internalNodes>
            0 -1 190 -1317599227 956957184 1367824757 871053637
            797223677 -1146500661 -1904080164 -1409054912</internalNodes>
          <leafValues>
            -7.1492207050323486e-001 6.3794302940368652e-001</leafValues></_>
        <_>
          <internalNodes>
            0 -1 104 1111542434 -1184771531 1367709787 -114181886
            1913715248 -2062384844 -318640689 -817010077</internalNodes>
          <leafValues>
            -8.7313306331634521e-001 4.7971713542938232e-001</leafValues></_>
        <_>
          <internalNodes>
            0 -1 160 -67469184 2043716574 5309067 -1982005085 1478015934
            -15695353 766316442 2144174251</internalNodes>
          <leafValues>
            -8.6373466253280640e-001 4.7605401277542114e-001</leafValues></_>
        <_>
          <internalNodes>
            0 -1 66 -1294482554 45857166 -1543314492 -1542528629
            -154397355 -93568945 2009423269 692714857</internalNodes>
          <leafValues>
            -1.0568602085113525e+000 3.8903188705444336e-001</leafValues></_>
        <_>
          <internalNodes>
            0 -1 6 1427081394 -583465583 1565524117 -807725045
            1237893761 226798218 1234901831 567540483</internalNodes>
          <leafValues>
            -8.9659512042999268e-001 4.6614706516265869e-001</leafValues></_>
        <_>
          <internalNodes>
            0 -1 217 -1052454768 -1879011184 -1061104943 -1852538788
            -1186219599 -1321955180 142641321 144916651</internalNodes>
          <leafValues>
            -7.0193964242935181e-001 5.7408088445663452e-001</leafValues></_>
        <_>
          <internalNodes>
            0 -1 171 -891678603 -1688796860 1166267091 1373257800
            -267894776 -642184957 2020100252 -97363896</internalNodes>
          <leafValues>
            -8.6630904674530029e-001 4.5546245574951172e-001</leafValues></_>
        <_>
          <internalNodes>
            0 -1 16 -1733579950 446306646 -908492734 1711802656
            273371473 2136754451 2105907412 708672486</internalNodes>
          <leafValues>
            -1.0225696563720703e+000 4.1088497638702393e-001</leafValues></_>
        <_>
          <internalNodes>
            0 -1 294 1087745180 353408798 -524068628 262862862 335769887
            1359151617 1757900995 589326446</internalNodes>
          <leafValues>
            -9.7667831182479858e-001 4.0446659922599792e-001</leafValues></_>
        <_>
          <internalNodes>
            0 -1 291 -433852541 -826113040 -1744187196 -159268669
            -100075056 1150814441 -930089488 -2138383934</internalNodes>
          <leafValues>
            -8.1628370285034180e-001 4.5931091904640198e-001</leafValues></_>
        <_>
          <internalNodes>
            0 -1 60 1810541994 -1836365938 -2079304683 -79581013
            612420511 -1181121566 1227430959 -1132599773</internalNodes>
          <leafValues>
            -6.4636862277984619e-001 6.1846709251403809e-001</leafValues></_>
        <_>
          <internalNodes>
            0 -1 317 -1067463926 358340935 -1795063340 170906058
            1896411580 424250369 1342200216 -797804179</internalNodes>
          <leafValues>
            -6.4449274539947510e-001 5.6348592042922974e-001</leafValues></_>
        <_>
          <internalNodes>
            0 -1 230 581501103 146800699 604624281 1898599455 880805189
            1418201370 1619200029 -8123893</internalNodes>
          <leafValues>
            -9.3823921680450439e-001 4.0756708383560181e-001</leafValues></_>
        <_>
          <internalNodes>
            0 -1 18 1249617352 912011783 -979730432 -1173354364
            273631244 1752555522 2082293772 1813312193</internalNodes>
          <leafValues>
            -9.8842489719390869e-001 3.7188944220542908e-001</leafValues></_></weakClassifiers></_>
    <!-- stage 6 -->
    <_>
      <maxWeakCount>13</maxWeakCount>
      <stageThreshold>-1.9880459308624268e+000</stageThreshold>
      <weakClassifiers>
        <_>
          <internalNodes>
            0 -1 258 -671051984 -562533007 -1073783047 -139074700
            -1543463532 -1431142459 -2095941671 -1077456619</internalNodes>
          <leafValues>
            -4.7178682684898376e-001 8.2752120494842529e-001</leafValues></_>
        <_>
          <internalNodes>
            0 -1 67 -338456926 -1890513253 -1056848957 -1949693689
            19218921 1660961844 -347638861 -786599038</internalNodes>
          <leafValues>
            -7.6750785112380981e-001 5.2787321805953979e-001</leafValues></_>
        <_>
          <internalNodes>
            0 -1 231 -362569174 -497688421 -1030586232 -1609393787
            1700061205 1140933892 -1551463797 -713712776</internalNodes>
          <leafValues>
            -7.2863548994064331e-001 5.4469239711761475e-001</leafValues></_>
        <_>
          <internalNodes>
            0 -1 191 1876829440 1614429503 -57942452 810997375
            -1294523824 1763409987 -1603310912 422861357</internalNodes>
          <leafValues>
            -1.3623409271240234e+000 3.0116507411003113e-001</leafValues></_>
        <_>
          <internalNodes>
            0 -1 269 -1641891920 931147318 1001389073 -575832196
            -63578743 -1090715721 -1342200355 -1918903056</internalNodes>
          <leafValues>
            -5.9713083505630493e-001 6.8469184637069702e-001</leafValues></_>
        <_>
          <internalNodes>
            0 -1 124 -100657980 -68758084 1052663549 -4834208 -541999374
            -1392672772 -144724741 -1613036541</internalNodes>
          <leafValues>
            -4.5589420199394226e-001 8.2494550943374634e-001</leafValues></_>
        <_>
          <internalNodes>
            0 -1 110 2139125 893492535 -2063478703 -271705202 352850669
            -1861381499 474851919 352434743</internalNodes>
          <leafValues>
            -8.5835176706314087e-001 4.5362541079521179e-001</leafValues></_>
        <_>
          <internalNodes>
            0 -1 154 -84475221 1194135850 -1684491622 82087518
            1879892674 1670422918 -392492277 987689014</internalNodes>
          <leafValues>
            -6.5444475412368774e-001 5.7737874984741211e-001</leafValues></_>
        <_>
          <internalNodes>
            0 -1 149 1519304402 -595673796 -16842821 -1146042464
            -1938813708 -78323746 -843719448 -72652421</internalNodes>
          <leafValues>
            -4.9626800417900085e-001 7.3654401302337646e-001</leafValues></_>
        <_>
          <internalNodes>
            0 -1 81 -1307088878 580391631 1429346722 -1603625630
            -1308304560 -638858198 923148416 1156974662</internalNodes>
          <leafValues>
            -1.3022320270538330e+000 2.9603162407875061e-001</leafValues></_>
        <_>
          <internalNodes>
            0 -1 274 1320379044 183108466 -1862006644 -1470055741
            -1003741006 1235222657 -515289598 -849029230</internalNodes>
          <leafValues>
            -1.0183305740356445e+000 3.5766071081161499e-001</leafValues></_>
        <_>
          <internalNodes>
            0 -1 118 -418441280 1880561543 1511596487 -1269542583
            -2126411277 -108420683 -870832568 710533719</internalNodes>
          <leafValues>
            -7.0598095655441284e-001 5.0787174701690674e-001</leafValues></_>
        <_>
          <internalNodes>
            0 -1 91 -404166216 -1261272741 -670937603 -1156784120
            549501105 -1030123413 1891333998 -848082385</internalNodes>
          <leafValues>
            -6.4650022983551025e-001 5.4825228452682495e-001</leafValues></_></weakClassifiers></_>
    <!-- stage 7 -->
    <_>
      <maxWeakCount>15</maxWeakCount>
      <stageThreshold>-2.5554921627044678e+000</stageThreshold>
      <weakClassifiers>
        <_>
          <internalNodes>
            0 -1 261 42434720 270008699 -104234528 -641168741 -929963795
            -569241080 -1983686408 -524424478</internalNodes>
          <leafValues>
            -6.9865417480468750e-001 5.8887016773223877e-001</leafValues></_>
        <_>
          <internalNodes>
            0 -1 209 -857758712 17219651 2424834 -1574436664 1093050794
            -1952844531 -532885917 -2085892981</internalNodes>
          <leafValues>
            -7.5588470697402954e-001 5.2998548746109009e-001</leafValues></_>
        <_>
          <internalNodes>
            0 -1 280 921945946 1548687391 1907452208 558878214
            1135695529 -631578600 1461881227 1077410585</internalNodes>
          <leafValues>
            -7.6619237661361694e-001 5.0662446022033691e-001</leafValues></_>
        <_>
          <internalNodes>
            0 -1 127 987992922 -212303618 -888920808 -1736802149
            -712914826 -926416864 -1327462396 -81286976</internalNodes>
          <leafValues>
            -7.4925100803375244e-001 5.1968228816986084e-001</leafValues></_>
        <_>
          <internalNodes>
            0 -1 197 271638288 2008431965 2078179066 -4454916
            -1117463052 -1082245275 -1108054584 -1079050166</internalNodes>
          <leafValues>
            -5.6509399414062500e-001 6.5865641832351685e-001</leafValues></_>
        <_>
          <internalNodes>
            0 -1 106 -35674419 2075867081 1175477398 1912771730
            -401729268 -2061859800 1411963064 -229420954</internalNodes>
          <leafValues>
            -6.9848006963729858e-001 5.3657519817352295e-001</leafValues></_>
        <_>
          <internalNodes>
            0 -1 222 -1440076969 70393105 -917863843 -15097656 298799402
            -1919137629 -385672744 -2697154</internalNodes>
          <leafValues>
            -6.0272854566574097e-001 6.0184079408645630e-001</leafValues></_>
        <_>
          <internalNodes>
            0 -1 45 435518355 -625999937 -2281539 -17928193 2062892698
            -1079756888 -160530702 -1191938715</internalNodes>
          <leafValues>
            -5.0096803903579712e-001 7.7292430400848389e-001</leafValues></_>
        <_>
          <internalNodes>
            0 -1 62 -1526536287 -1452789106 84414855 -250093990
            201412019 -938473083 120574781 92394708</internalNodes>
          <leafValues>
            -8.3894258737564087e-001 4.6160975098609924e-001</leafValues></_>
        <_>
          <internalNodes>
            0 -1 169 -111498064 2123504117 135448496 -1780782961
            51419360 -2147483094 -24071208 -1883029397</internalNodes>
          <leafValues>
            -5.7459235191345215e-001 6.0379678010940552e-001</leafValues></_>
        <_>
          <internalNodes>
            0 -1 187 -1382990263 -140603128 -2029791027 635828309
            -1858532644 -120520668 344667214 -1428853497</internalNodes>
          <leafValues>
            -6.1402016878128052e-001 5.8749711513519287e-001</leafValues></_>
        <_>
          <internalNodes>
            0 -1 319 -436744277 -774266885 1677715408 846194622
            846938810 346724159 -1527131158 -92872906</internalNodes>
          <leafValues>
            -5.1433616876602173e-001 6.8172973394393921e-001</leafValues></_>
        <_>
          <internalNodes>
            0 -1 121 -252309041 -1925229859 -336070674 -505024545
            -33751279 -680145099 -1888502542 -1364853085</internalNodes>
          <leafValues>
            -4.8330402374267578e-001 6.9806021451950073e-001</leafValues></_>
        <_>
          <internalNodes>
            0 -1 77 12587648 11668368 -662404060 613843339 516442896
            227387910 -831947448 1775008671</internalNodes>
          <leafValues>
            -1.4940629005432129e+000 2.7567335963249207e-001</leafValues></_>
        <_>
          <internalNodes>
            0 -1 30 -379875065 -300163021 1477756279 1632257479
            187350276 1511009185 -1165387568 1916043327</internalNodes>
          <leafValues>
            -8.0868798494338989e-001 4.0560767054557800e-001</leafValues></_></weakClassifiers></_>
    <!-- stage 8 -->
    <_>
      <maxWeakCount>18</maxWeakCount>
      <stageThreshold>-2.2763018608093262e+000</stageThreshold>
      <weakClassifiers>
        <_>
          <internalNodes>
            0 -1 194 -15204858 938454927 -68236500 -135336278 2104440521
            -1644863665 -131816312 -119311730</internalNodes>
          <leafValues>
            -5.3769302368164063e-001 7.0226538181304932e-001</leafValues></_>
        <_>
          <internalNodes>
            0 -1 93 -526899342 165257974 139536417 122760804 988310719
            -107408872 -1897438933 139919654</internalNodes>
          <leafValues>
            -1.0282976627349854e+000 3.6944001913070679e-001</leafValues></_>
        <_>
          <internalNodes>
            0 -1 50 2113630023 277642519 -1068490712 957599943
            2072774668 1145405443 -85186368 -279743872</internalNodes>
          <leafValues>
            -6.7591869831085205e-001 5.4172891378402710e-001</leafValues></_>
        <_>
          <internalNodes>
            0 -1 43 -30166517 -1294743211 -1861136909 35188866
            1370208548 -463099343 -1970599168 -458239169</internalNodes>
          <leafValues>
            -8.3924371004104614e-001 4.8791122436523438e-001</leafValues></_>
        <_>
          <internalNodes>
            0 -1 4 79854464 -65093428 -1109949564 -111885420 1998342912
            -220492919 2024545046 1784703954</internalNodes>
          <leafValues>
            -1.0423613786697388e+000 3.4431809186935425e-001</leafValues></_>
        <_>
          <internalNodes>
            0 -1 232 -93456163 -1158967393 -1343803596 -1137541152
            -1939202567 -1104863914 -319005474 -1423769902</internalNodes>
          <leafValues>
            -5.6906366348266602e-001 6.3087791204452515e-001</leafValues></_>
        <_>
          <internalNodes>
            0 -1 272 1590724364 1416303694 -1879031462 807371868
            1090644942 -921622260 -1694263222 -201067191</internalNodes>
          <leafValues>
            -7.3036301136016846e-001 4.9739095568656921e-001</leafValues></_>
        <_>
          <internalNodes>
            0 -1 300 -778373391 -926396205 -113280957 -1361813034
            -1462902313 -1985263205 701354932 -54629608</internalNodes>
          <leafValues>
            -5.6674569845199585e-001 6.3402473926544189e-001</leafValues></_>
        <_>
          <internalNodes>
            0 -1 90 -1086192133 -1135209657 -984284911 659773651
            975048622 -2141069231 285587995 -1104748035</internalNodes>
          <leafValues>
            -6.2212526798248291e-001 5.6490367650985718e-001</leafValues></_>
        <_>
          <internalNodes>
            0 -1 188 1318527152 1746808862 1166636206 1218221694
            -929160296 -1861582133 923310090 1881759596</internalNodes>
          <leafValues>
            -9.6033138036727905e-001 3.8773259520530701e-001</leafValues></_>
        <_>
          <internalNodes>
            0 -1 304 -972297361 1526767693 -1056943076 -708000818
            1653773316 138215462 -755332574 -1335624844</internalNodes>
          <leafValues>
            -6.6936028003692627e-001 5.2909010648727417e-001</leafValues></_>
        <_>
          <internalNodes>
            0 -1 199 -536953089 -1393514758 128908799 -1358316629
            -2720789 -65145328 -17145029 254768959</internalNodes>
          <leafValues>
            -5.0871777534484863e-001 7.2517597675323486e-001</leafValues></_>
        <_>
          <internalNodes>
            0 -1 72 -1931509602 1376788820 -1828126192 21955249
            -134076396 -39122655 -385734024 53736899</internalNodes>
          <leafValues>
            -7.6255726814270020e-001 4.6723377704620361e-001</leafValues></_>
        <_>
          <internalNodes>
            0 -1 268 -1779763840 310401158 -715615789 -1248165616
            990812890 1117438137 648602528 -1950443368</internalNodes>
          <leafValues>
            -6.3727968931198120e-001 5.3062790632247925e-001</leafValues></_>
        <_>
          <internalNodes>
            0 -1 325 1270065091 -1355108801 -207261955 -140460086
            1190606069 106749940 1714795221 -838861078</internalNodes>
          <leafValues>
            -5.1098430156707764e-001 6.3314396142959595e-001</leafValues></_>
        <_>
          <internalNodes>
            0 -1 241 -529063390 811305107 -494923622 -1743001578
            1342197760 394330112 -1634669969 -183225837</internalNodes>
          <leafValues>
            -7.7083456516265869e-001 4.1595742106437683e-001</leafValues></_>
        <_>
          <internalNodes>
            0 -1 123 841967254 -1764730382 1258493500 -712136381
            -1467773692 -2073132928 1287067996 722785493</internalNodes>
          <leafValues>
            -6.7567741870880127e-001 4.8361155390739441e-001</leafValues></_>
        <_>
          <internalNodes>
            0 -1 148 -198967329 -93262416 -1078005763 -109805383
            -825978887 773873662 -22733708 -67137997</internalNodes>
          <leafValues>
            -3.8785764575004578e-001 8.0367898941040039e-001</leafValues></_></weakClassifiers></_>
    <!-- stage 9 -->
    <_>
      <maxWeakCount>18</maxWeakCount>
      <stageThreshold>-2.2771646976470947e+000</stageThreshold>
      <weakClassifiers>
        <_>
          <internalNodes>
            0 -1 277 9570372 810588223 -1702444602 511098923 -796864363
            -189749063 -1152591140 -1436409794</internalNodes>
          <leafValues>
            -7.4059909582138062e-001 5.5201286077499390e-001</leafValues></_>
        <_>
          <internalNodes>
            0 -1 85 -2126500752 -1455977336 -247433006 -1520561265
            177537467 -668892493 143474963 210501985</internalNodes>
          <leafValues>
            -1.1994630098342896e+000 3.1215992569923401e-001</leafValues></_>
        <_>
          <internalNodes>
            0 -1 34 -207423517 -1448461164 960497182 -426912562
            1074772242 567433 1127682418 647796708</internalNodes>
          <leafValues>
            -9.8804003000259399e-001 3.7351843714714050e-001</leafValues></_>
        <_>
          <internalNodes>
            0 -1 211 -404821368 13287586 1611186784 -241997400
            -614537987 -2145220585 -1245643119 -375011958</internalNodes>
          <leafValues>
            -6.4162969589233398e-001 5.8103615045547485e-001</leafValues></_>
        <_>
          <internalNodes>
            0 -1 12 -939447774 -398162980 -778545691 -673590867
            135798724 1795170489 1484870545 1313893241</internalNodes>
          <leafValues>
            -1.2450920343399048e+000 3.0132550001144409e-001</leafValues></_>
        <_>
          <internalNodes>
            0 -1 182 -736846864 1434747221 -1790507492 500107272
            269812240 882929795 696284441 536035963</internalNodes>
          <leafValues>
            -6.9739496707916260e-001 5.1787805557250977e-001</leafValues></_>
        <_>
          <internalNodes>
            0 -1 228 1205764495 846332941 1095356031 995673475 9441061
            -25100072 706238554 -9632174</internalNodes>
          <leafValues>
            -6.9686549901962280e-001 5.1527649164199829e-001</leafValues></_>
        <_>
          <internalNodes>
            0 -1 63 -2109259070 537202719 -1022852713 404115624
            1649580710 795050502 465652380 -104308183</internalNodes>
          <leafValues>
            -9.0989202260971069e-001 4.0962088108062744e-001</leafValues></_>
        <_>
          <internalNodes>
            0 -1 143 211034372 1371222349 -805154415 -1256779364
            1486365332 -1398124416 -1149035554 699139392</internalNodes>
          <leafValues>
            -9.5232504606246948e-001 4.0811604261398315e-001</leafValues></_>
        <_>
          <internalNodes>
            0 -1 237 -961055825 -979119358 -251055108 305173458
            942253479 -444249433 -1157428320 -858481706</internalNodes>
          <leafValues>
            -5.8283019065856934e-001 5.9740418195724487e-001</leafValues></_>
        <_>
          <internalNodes>
            0 -1 116 -628917549 1224926543 -1228881325 -254766414
            -66980772 833167544 -2000553660 -92550054</internalNodes>
          <leafValues>
            -5.7657837867736816e-001 5.9030389785766602e-001</leafValues></_>
        <_>
          <internalNodes>
            0 -1 108 1425560535 -1413779203 -52516641 -1459964929
            1073528374 -10 2128428793 -66246950</internalNodes>
          <leafValues>
            -4.6331268548965454e-001 7.3084473609924316e-001</leafValues></_>
        <_>
          <internalNodes>
            0 -1 157 2053868700 211695867 -1726790640 -1122549030
            2018039977 1208861011 732945214 1273340536</internalNodes>
          <leafValues>
            -8.0419075489044189e-001 4.4168004393577576e-001</leafValues></_>
        <_>
          <internalNodes>
            0 -1 303 -556365893 973267398 1166132761 2055848474
            583348382 -2113879680 -255391703 149885185</internalNodes>
          <leafValues>
            -6.6451007127761841e-001 5.1228970289230347e-001</leafValues></_>
        <_>
          <internalNodes>
            0 -1 320 -849763441 -1752432965 -1073857757 -481902618
            -956496226 -419463308 -285234393 -207098004</internalNodes>
          <leafValues>
            -4.2960843443870544e-001 7.9156535863876343e-001</leafValues></_>
        <_>
          <internalNodes>
            0 -1 253 -1610530766 341475461 -1844062756 -229014696
            -2112705664 404242754 -912743698 2014327074</internalNodes>
          <leafValues>
            -8.6071890592575073e-001 4.1103762388229370e-001</leafValues></_>
        <_>
          <internalNodes>
            0 -1 293 1941291788 -1572423721 -749960554 17163526
            1345012608 17211530 419496702 1923323195</internalNodes>
          <leafValues>
            -7.7742803096771240e-001 4.0341693162918091e-001</leafValues></_>
        <_>
          <internalNodes>
            0 -1 178 -226483120 268849569 -1857481705 272847362
            -1696068220 -805175167 -1868848982 -1439516109</internalNodes>
          <leafValues>
            -6.3524842262268066e-001 4.8984313011169434e-001</leafValues></_></weakClassifiers></_>
    <!-- stage 10 -->
    <_>
      <maxWeakCount>19</maxWeakCount>
      <stageThreshold>-2.1457519531250000e+000</stageThreshold>
      <weakClassifiers>
        <_>
          <internalNodes>
            0 -1 240 80530668 628155154 -753860535 -169014338 1213583103
            -397770478 -1811286147 -1366037063</internalNodes>
          <leafValues>
            -6.7812144756317139e-001 5.9289616346359253e-001</leafValues></_>
        <_>
          <internalNodes>
            0 -1 86 440413745 -1190289132 -733995180 -1977891897
            135793583 185271203 1250439999 83886853</internalNodes>
          <leafValues>
            -1.1114361286163330e+000 3.2830184698104858e-001</leafValues></_>
        <_>
          <internalNodes>
            0 -1 84 -220464889 1780183070 441524794 806543902 -741848488
            1393955161 -674061519 1967615455</internalNodes>
          <leafValues>
            -8.0093383789062500e-001 4.5865294337272644e-001</leafValues></_>
        <_>
          <internalNodes>
            0 -1 210 -453139838 4620953 567706146 1406218568 -939494958
            65536131 -226237725 -574910262</internalNodes>
          <leafValues>
            -6.4462381601333618e-001 5.5033177137374878e-001</leafValues></_>
        <_>
          <internalNodes>
            0 -1 298 -252794316 -317572 -1073808528 -243531905
            -1393969632 -682116362 -1621525352 -1484374085</internalNodes>
          <leafValues>
            -5.0806307792663574e-001 6.9125676155090332e-001</leafValues></_>
        <_>
          <internalNodes>
            0 -1 137 672542764 222010379 -1068234689 1659197915
            -2147261650 1432930402 1332700970 167938405</internalNodes>
          <leafValues>
            -1.3030343055725098e+000 2.7293312549591064e-001</leafValues></_>
        <_>
          <internalNodes>
            0 -1 207 -1632636697 -956006538 -2004661441 974424654
            678003645 1911058466 1773101159 677757622</internalNodes>
          <leafValues>
            -6.2029129266738892e-001 5.7555663585662842e-001</leafValues></_>
        <_>
          <internalNodes>
            0 -1 185 -620347504 -256880234 -1291631879 -83066478
            -1006611488 -50296270 -1936731732 -601520066</internalNodes>
          <leafValues>
            -6.2247639894485474e-001 5.4702514410018921e-001</leafValues></_>
        <_>
          <internalNodes>
            0 -1 202 -1796452440 525582607 1157677299 -1974745799
            774324600 454951601 -424998286 -1173275339</internalNodes>
          <leafValues>
            -7.7376985549926758e-001 4.4078055024147034e-001</leafValues></_>
        <_>
          <internalNodes>
            0 -1 82 -1094666368 -1110721014 1480871958 139377170
            -2092745915 -1358166995 25659396 -469392576</internalNodes>
          <leafValues>
            -9.1338950395584106e-001 3.8156315684318542e-001</leafValues></_>
        <_>
          <internalNodes>
            0 -1 312 -1001129937 1964212251 1293091222 1469104520
            1208483892 84580612 1263108226 -1808341072</internalNodes>
          <leafValues>
            -6.4135903120040894e-001 5.2787727117538452e-001</leafValues></_>
        <_>
          <internalNodes>
            0 -1 136 -762167273 -2134303969 1265742736 -1993145906
            -89903216 156115488 -861080395 -2061285369</internalNodes>
          <leafValues>
            -6.4357882738113403e-001 5.0248527526855469e-001</leafValues></_>
        <_>
          <internalNodes>
            0 -1 42 -34418961 1000468087 -269234190 -1883504649
            343364956 351567741 -209756187 -419473546</internalNodes>
          <leafValues>
            -5.6576693058013916e-001 5.8165758848190308e-001</leafValues></_>
        <_>
          <internalNodes>
            0 -1 65 29600614 413318639 -1063939730 337871242 -727704053
            -107970462 -469284465 -343383863</internalNodes>
          <leafValues>
            -7.5561577081680298e-001 4.4504809379577637e-001</leafValues></_>
        <_>
          <internalNodes>
            0 -1 109 -59458828 537004549 -1926643361 1662669850
            705231004 2011879649 135483460 591544896</internalNodes>
          <leafValues>
            -7.9789507389068604e-001 4.0340179204940796e-001</leafValues></_>
        <_>
          <internalNodes>
            0 -1 297 1601631009 -876158620 830650771 -2084375658
            1547817377 942814465 -1978399046 -1530398233</internalNodes>
          <leafValues>
            -5.5225908756256104e-001 5.4941940307617188e-001</leafValues></_>
        <_>
          <internalNodes>
            0 -1 125 -1005444872 -124694086 -1772595873 1031985173
            -788428544 -1803349999 -1467452458 137384475</internalNodes>
          <leafValues>
            -6.4138990640640259e-001 4.8836690187454224e-001</leafValues></_>
        <_>
          <internalNodes>
            0 -1 31 -1144613700 -1035795820 1094910028 34406728
            338673813 -2104564854 1250000648 71791136</internalNodes>
          <leafValues>
            -9.3066734075546265e-001 3.2230809330940247e-001</leafValues></_>
        <_>
          <internalNodes>
            0 -1 177 -1060240224 1226050979 264839184 2098151449
            172767549 159518801 142869372 1332585353</internalNodes>
          <leafValues>
            -9.3192833662033081e-001 3.2622468471527100e-001</leafValues></_></weakClassifiers></_>
    <!-- stage 11 -->
    <_>
      <maxWeakCount>15</maxWeakCount>
      <stageThreshold>-2.1467080116271973e+000</stageThreshold>
      <weakClassifiers>
        <_>
          <internalNodes>
            0 -1 200 1920528848 1608296692 -268437635 1031696123
            1982183808 -1233848395 1877966456 995632448</internalNodes>
          <leafValues>
            -5.8953720331192017e-001 6.4184659719467163e-001</leafValues></_>
        <_>
          <internalNodes>
            0 -1 70 1042266916 839541327 -1996468991 536908306
            1963993440 772499485 -310666698 1884799026</internalNodes>
          <leafValues>
            -1.2627104520797729e+000 2.9354143142700195e-001</leafValues></_>
        <_>
          <internalNodes>
            0 -1 117 -1035927536 520913432 78711057 -1294605867
            -896693845 2147123368 -288335558 671432501</internalNodes>
          <leafValues>
            -9.9149799346923828e-001 3.6948472261428833e-001</leafValues></_>
        <_>
          <internalNodes>
            0 -1 144 1150299139 -575602278 99688709 -576748512 671328681
            1482196016 -767022200 -1884435477</internalNodes>
          <leafValues>
            -7.0544165372848511e-001 5.2571856975555420e-001</leafValues></_>
        <_>
          <internalNodes>
            0 -1 265 -297281367 -436055996 1426670090 176328334
            1721576156 714769066 1221612464 -352552304</internalNodes>
          <leafValues>
            -8.9675724506378174e-001 4.2828208208084106e-001</leafValues></_>
        <_>
          <internalNodes>
            0 -1 224 -529227390 -638552154 -285590985 -101695681
            -1782597675 -578969729 -1267649292 -375005315</internalNodes>
          <leafValues>
            -5.8424162864685059e-001 6.1179423332214355e-001</leafValues></_>
        <_>
          <internalNodes>
            0 -1 323 -553128209 734569439 -806371839 -2121760884
            1827102443 1207301877 1073065775 -1042940516</internalNodes>
          <leafValues>
            -5.3108513355255127e-001 6.4732664823532104e-001</leafValues></_>
        <_>
          <internalNodes>
            0 -1 172 -128176976 1626342706 138478898 -1158669816
            -1065023388 -805289472 -1685649072 -1072742397</internalNodes>
          <leafValues>
            -9.9850749969482422e-001 3.5211575031280518e-001</leafValues></_>
        <_>
          <internalNodes>
            0 -1 3 92670114 -1353015222 -1303588602 1847474968 122963045
            51021897 1676413445 1195796098</internalNodes>
          <leafValues>
            -1.4462177753448486e+000 2.1284538507461548e-001</leafValues></_>
        <_>
          <internalNodes>
            0 -1 122 -472460129 -1125186765 -16777574 -352358513
            -25239880 528412596 -184642147 -1993375753</internalNodes>
          <leafValues>
            -4.4641163945198059e-001 7.4456560611724854e-001</leafValues></_>
        <_>
          <internalNodes>
            0 -1 79 -1528692704 582406342 281545214 273711125 27066736
            1762775754 134304112 -462661125</internalNodes>
          <leafValues>
            -1.4793215990066528e+000 2.5587970018386841e-001</leafValues></_>
        <_>
          <internalNodes>
            0 -1 184 2114865759 -2555805 1115951263 -1229782626
            1610694688 -91436662 -134133576 -4558493</internalNodes>
          <leafValues>
            -5.6612676382064819e-001 5.7194602489471436e-001</leafValues></_>
        <_>
          <internalNodes>
            0 -1 23 1882432099 1662161405 -1744306155 -243170426
            219808279 -1334966263 1528109752 -1934116065</internalNodes>
          <leafValues>
            -6.1970049142837524e-001 5.2727013826370239e-001</leafValues></_>
        <_>
          <internalNodes>
            0 -1 324 -1129465429 -1116954770 -25203564 -191086790
            -805841756 167641077 -500732318 -419989300</internalNodes>
          <leafValues>
            -4.8698875308036804e-001 6.2520319223403931e-001</leafValues></_>
        <_>
          <internalNodes>
            0 -1 141 -109051456 -1730936684 1888782424 -548634360
            -1098907520 -1020993131 -368987463 873729589</internalNodes>
          <leafValues>
            -7.2991693019866943e-001 4.2461231350898743e-001</leafValues></_></weakClassifiers></_>
    <!-- stage 12 -->
    <_>
      <maxWeakCount>16</maxWeakCount>
      <stageThreshold>-2.1456260681152344e+000</stageThreshold>
      <weakClassifiers>
        <_>
          <internalNodes>
            0 -1 37 -411704347 -1903145786 -721095707 -2030041468
            1074967039 1280425 1690362695 1406980935</internalNodes>
          <leafValues>
            -6.7586207389831543e-001 5.8895707130432129e-001</leafValues></_>
        <_>
          <internalNodes>
            0 -1 204 -1559484891 -1684333517 -523380927 -1408541871
            436424623 -342103013 1761806588 -401432780</internalNodes>
          <leafValues>
            -8.0289179086685181e-001 4.6185302734375000e-001</leafValues></_>
        <_>
          <internalNodes>
            0 -1 38 -1433383630 -89095908 1133677856 -445510851
            453018374 379591050 -2086256400 1882614441</internalNodes>
          <leafValues>
            -1.0266880989074707e+000 3.5080140829086304e-001</leafValues></_>
        <_>
          <internalNodes>
            0 -1 170 -397687363 411224506 1897857547 797266109
            1818161532 -401676107 2108377092 1287326800</internalNodes>
          <leafValues>
            -7.8613519668579102e-001 4.3619310855865479e-001</leafValues></_>
        <_>
          <internalNodes>
            0 -1 158 76028940 253239826 -305124059 -1953151658
            -2031780315 -933833655 -1900003543 32468223</internalNodes>
          <leafValues>
            -1.1765786409378052e+000 3.2256233692169189e-001</leafValues></_>
        <_>
          <internalNodes>
            0 -1 251 -1441367052 -1867759088 457273625 -1123237036
            -1576408387 -476999523 -989148775 -1967651672</internalNodes>
          <leafValues>
            -7.1937847137451172e-001 4.4992804527282715e-001</leafValues></_>
        <_>
          <internalNodes>
            0 -1 32 -1040178064 923324433 -544502386 -1886469886 9448631
            1849800835 1091130739 82003280</internalNodes>
          <leafValues>
            -1.1919237375259399e+000 2.9310530424118042e-001</leafValues></_>
        <_>
          <internalNodes>
            0 -1 167 303817634 285212690 -786953816 -137327202
            -612269673 -2036293469 -1331031237 -710741753</internalNodes>
          <leafValues>
            -6.8650764226913452e-001 5.1886951923370361e-001</leafValues></_>
        <_>
          <internalNodes>
            0 -1 80 -1569534678 1518505993 -1840774918 914505786
            -853319333 1347485696 436355717 1963321484</internalNodes>
          <leafValues>
            -9.6068632602691650e-001 4.2286881804466248e-001</leafValues></_>
        <_>
          <internalNodes>
            0 -1 40 -14167598 455069686 -268439553 -1946505241
            1567978869 -42633356 -2697 2113199167</internalNodes>
          <leafValues>
            -5.4632943868637085e-001 6.2797302007675171e-001</leafValues></_>
        <_>
          <internalNodes>
            0 -1 289 -883965149 -2000608440 1850631536 -695684211
            1712276883 955949241 -2079877984 -2138588429</internalNodes>
          <leafValues>
            -7.4940633773803711e-001 4.6187108755111694e-001</leafValues></_>
        <_>
          <internalNodes>
            0 -1 195 -502292054 138809736 1822802304 -749390548
            713257203 46563464 1652801537 -979402257</internalNodes>
          <leafValues>
            -6.6163527965545654e-001 5.0520944595336914e-001</leafValues></_>
        <_>
          <internalNodes>
            0 -1 161 -1997477372 -1276653303 -729769615 13467842
            -1702395249 50462728 -1899682932 -1570486748</internalNodes>
          <leafValues>
            -9.7152954339981079e-001 3.2401746511459351e-001</leafValues></_>
        <_>
          <internalNodes>
            0 -1 168 -1342222341 -1459749000 -1526844253 -773132720
            1610611967 -101351425 1684427915 -671837213</internalNodes>
          <leafValues>
            -4.6778166294097900e-001 6.9511079788208008e-001</leafValues></_>
        <_>
          <internalNodes>
            0 -1 311 1657400547 1004928137 -1118311 1404960444 490152562
            1946025852 -1078651969 -991822276</internalNodes>
          <leafValues>
            -4.9882733821868896e-001 6.1617296934127808e-001</leafValues></_>
        <_>
          <internalNodes>
            0 -1 262 576395072 1144127907 505074948 564478571
            -1425583502 111685728 -1706051694 1168192289</internalNodes>
          <leafValues>
            -1.1410171985626221e+000 2.5967732071876526e-001</leafValues></_></weakClassifiers></_>
    <!-- stage 13 -->
    <_>
      <maxWeakCount>20</maxWeakCount>
      <stageThreshold>-2.0506529808044434e+000</stageThreshold>
      <weakClassifiers>
        <_>
          <internalNodes>
            0 -1 288 -155126284 -780619780 -1073858575 -537596100
            -1078411271 -1284688049 -1493916500 -1346497281</internalNodes>
          <leafValues>
            -3.1971231102943420e-001 9.4736844301223755e-001</leafValues></_>
        <_>
          <internalNodes>
            0 -1 114 -824773985 -195304165 -485121756 -93687410
            -206885301 -243148719 33874032 -210358254</internalNodes>
          <leafValues>
            -6.0619652271270752e-001 5.3122884035110474e-001</leafValues></_>
        <_>
          <internalNodes>
            0 -1 285 -722802170 248366026 -1994467314 1889322035
            -1970917886 390348829 -64779574 1345424897</internalNodes>
          <leafValues>
            -1.0491842031478882e+000 3.0642941594123840e-001</leafValues></_>
        <_>
          <internalNodes>
            0 -1 215 1461237136 1342179872 -1324267715 1066209375
            950260400 305201312 261860843 167744126</internalNodes>
          <leafValues>
            -5.7156020402908325e-001 5.6579864025115967e-001</leafValues></_>
        <_>
          <internalNodes>
            0 -1 120 1653777019 -293067873 1431569297 -35280557
            1365764807 -1467400189 -266350321 -1384867263</internalNodes>
          <leafValues>
            -5.5189746618270874e-001 5.7108330726623535e-001</leafValues></_>
        <_>
          <internalNodes>
            0 -1 22 231284896 307414421 1569341875 819855489 2000783168
            1989836971 -374568300 583338368</internalNodes>
          <leafValues>
            -1.1019988059997559e+000 2.9801806807518005e-001</leafValues></_>
        <_>
          <internalNodes>
            0 -1 242 1285950586 1835891534 -645782668 931422678
            -939221638 -2011125528 -1920892162 -960446328</internalNodes>
          <leafValues>
            -7.8269541263580322e-001 4.1917154192924500e-001</leafValues></_>
        <_>
          <internalNodes>
            0 -1 46 -4718797 -1292128578 -1359630602 -79892822 158775231
            -303366425 -2050345353 -1936333658</internalNodes>
          <leafValues>
            -4.9141970276832581e-001 6.5003985166549683e-001</leafValues></_>
        <_>
          <internalNodes>
            0 -1 174 -1395717257 -1746008711 2079326185 1308488701
            2096603127 -268536321 1182549140 -339330919</internalNodes>
          <leafValues>
            -5.0441151857376099e-001 6.4308094978332520e-001</leafValues></_>
        <_>
          <internalNodes>
            0 -1 284 -1623468611 1462448014 -18202887 -358154514
            -1326174407 -94996618 -595676485 -571214402</internalNodes>
          <leafValues>
            -4.3530115485191345e-001 7.4637055397033691e-001</leafValues></_>
        <_>
          <internalNodes>
            0 -1 326 1280589840 -1100987630 1359159798 1012889438
            1754372685 -1685912576 -625364912 -1468783600</internalNodes>
          <leafValues>
            -8.1489378213882446e-001 4.0403336286544800e-001</leafValues></_>
        <_>
          <internalNodes>
            0 -1 26 7601839 1413074998 806912510 -1474365950 2043215885
            1545388136 1751220804 -1000007120</internalNodes>
          <leafValues>
            -7.7608716487884521e-001 4.1299837827682495e-001</leafValues></_>
        <_>
          <internalNodes>
            0 -1 99 -1279553006 -1290091814 -460143605 -2063285995
            -561667760 -1442838385 -1556055502 -797251497</internalNodes>
          <leafValues>
            -6.4402616024017334e-001 4.8432877659797668e-001</leafValues></_>
        <_>
          <internalNodes>
            0 -1 315 -845957967 -1475337451 -2012934106 541367430
            466272929 404750465 1640088564 -855778435</internalNodes>
          <leafValues>
            -6.6193383932113647e-001 4.5952367782592773e-001</leafValues></_>
        <_>
          <internalNodes>
            0 -1 163 86042496 282074164 -1180348347 133628365 1547836182
            421529675 1451581802 478428808</internalNodes>
          <leafValues>
            -9.5236051082611084e-001 3.2878750562667847e-001</leafValues></_>
        <_>
          <internalNodes>
            0 -1 282 1974890770 -1063255646 -268365239 468238786
            -1455152390 841044179 -1574692823 1006736348</internalNodes>
          <leafValues>
            -7.6935899257659912e-001 3.6637359857559204e-001</leafValues></_>
        <_>
          <internalNodes>
            0 -1 119 -1891258633 1457368652 2147418096 -180420659
            -1887474038 -1074876626 -537897065 -1180595145</internalNodes>
          <leafValues>
            -4.7635674476623535e-001 6.4708411693572998e-001</leafValues></_>
        <_>
          <internalNodes>
            0 -1 318 1222353563 139843466 -67089941 1053933722
            1370170504 -1845264102 -1844964853 292874701</internalNodes>
          <leafValues>
            -5.7316654920578003e-001 5.1213759183883667e-001</leafValues></_>
        <_>
          <internalNodes>
            0 -1 55 -1366283376 240980613 537977229 705562055 44900837
            -87939967 -125828584 1550598186</internalNodes>
          <leafValues>
            -1.0816897153854370e+000 2.4601559340953827e-001</leafValues></_>
        <_>
          <internalNodes>
            0 -1 7 -1711836592 -1547398691 -1073692286 -1111369462
            2077841900 -1125908056 -2012120796 1359505630</internalNodes>
          <leafValues>
            -6.4563530683517456e-001 4.4958502054214478e-001</leafValues></_></weakClassifiers></_>
    <!-- stage 14 -->
    <_>
      <maxWeakCount>18</maxWeakCount>
      <stageThreshold>-2.0822424888610840e+000</stageThreshold>
      <weakClassifiers>
        <_>
          <internalNodes>
            0 -1 234 70540372 364296055 2089189367 -1086620001 291376866
            -1225326788 -1079095393 -1346695218</internalNodes>
          <leafValues>
            -4.3040135502815247e-001 6.6895371675491333e-001</leafValues></_>
        <_>
          <internalNodes>
            0 -1 48 -1709544896 168481060 2106442311 1089077650 73736512
            -1692254151 714082453 581187992</internalNodes>
          <leafValues>
            -1.3480339050292969e+000 2.3430706560611725e-001</leafValues></_>
        <_>
          <internalNodes>
            0 -1 146 102894624 1003675878 -1938730724 -46582564
            809859428 967477441 586097367 -305190412</internalNodes>
          <leafValues>
            -8.5741579532623291e-001 3.8186463713645935e-001</leafValues></_>
        <_>
          <internalNodes>
            0 -1 15 -605053593 162963794 -1070378988 -4501422 1360543763
            809263715 811190917 920050199</internalNodes>
          <leafValues>
            -7.1503812074661255e-001 4.6115309000015259e-001</leafValues></_>
        <_>
          <internalNodes>
            0 -1 92 546045956 1275924616 1632332042 71594511 -1131933180
            1484788252 -1051114270 557326002</internalNodes>
          <leafValues>
            -1.5392298698425293e+000 2.2784972190856934e-001</leafValues></_>
        <_>
          <internalNodes>
            0 -1 256 -153883089 -1974379555 -1341701428 1615413255
            -1065297401 2014117896 -620338500 -1331236274</internalNodes>
          <leafValues>
            -6.6570574045181274e-001 4.4834947586059570e-001</leafValues></_>
        <_>
          <internalNodes>
            0 -1 225 1371584717 2133989433 1151402115 -1736834168
            -1058995802 -640155629 -1006577196 1795441254</internalNodes>
          <leafValues>
            -6.4061361551284790e-001 4.8862209916114807e-001</leafValues></_>
        <_>
          <internalNodes>
            0 -1 186 -1046052652 -447170436 -1056717485 1066599954
            -869641296 -78053114 -869316600 145567522</internalNodes>
          <leafValues>
            -7.1887338161468506e-001 4.3114283680915833e-001</leafValues></_>
        <_>
          <internalNodes>
            0 -1 150 -1947325398 641913529 -113078152 94028953
            -787863125 427989160 1226852674 1949958935</internalNodes>
          <leafValues>
            -9.6392577886581421e-001 3.3084154129028320e-001</leafValues></_>
        <_>
          <internalNodes>
            0 -1 316 113765694 387105556 -754855484 394952974 -645152086
            1350894084 1381718208 -118360994</internalNodes>
          <leafValues>
            -5.4559665918350220e-001 5.3982931375503540e-001</leafValues></_>
        <_>
          <internalNodes>
            0 -1 252 306325358 -584974253 -1055583036 17922175
            -784088608 -251297656 1624067032 2019654709</internalNodes>
          <leafValues>
            -7.8835654258728027e-001 3.8200715184211731e-001</leafValues></_>
        <_>
          <internalNodes>
            0 -1 27 -21525797 -940376390 2000105263 -169628431
            1065352536 -268437506 905377737 -1090652180</internalNodes>
          <leafValues>
            -3.1581184267997742e-001 9.1358023881912231e-001</leafValues></_>
        <_>
          <internalNodes>
            0 -1 301 -984907061 -1974730525 1074368759 1226129929
            -383821781 -1006108414 -1022476032 1172196368</internalNodes>
          <leafValues>
            -8.4641373157501221e-001 3.5742726922035217e-001</leafValues></_>
        <_>
          <internalNodes>
            0 -1 238 -64756717 1043916288 -188756111 -100696270
            1078338965 -1074266268 31935620 -444383196</internalNodes>
          <leafValues>
            -5.2643501758575439e-001 5.5969721078872681e-001</leafValues></_>
        <_>
          <internalNodes>
            0 -1 133 -1222143769 2102017856 83903812 1190789322
            361267598 -342126406 34194131 -1422248894</internalNodes>
          <leafValues>
            -5.3004533052444458e-001 5.4933702945709229e-001</leafValues></_>
        <_>
          <internalNodes>
            0 -1 198 1416157680 -162467856 -268505411 2074944623
            1987441796 749778428 -1137752246 193545275</internalNodes>
          <leafValues>
            -5.0923800468444824e-001 5.5270117521286011e-001</leafValues></_>
        <_>
          <internalNodes>
            0 -1 213 -1302346718 388695636 -171597942 1255113890
            275501328 1417216008 -972166500 -1340087267</internalNodes>
          <leafValues>
            -6.9935727119445801e-001 4.0681463479995728e-001</leafValues></_>
        <_>
          <internalNodes>
            0 -1 113 -807865825 -950370083 607584261 -707374084
            -1794536802 -620449374 1562257956 -930574765</internalNodes>
          <leafValues>
            -5.6571894884109497e-001 4.9755156040191650e-001</leafValues></_></weakClassifiers></_>
    <!-- stage 15 -->
    <_>
      <maxWeakCount>18</maxWeakCount>
      <stageThreshold>-1.8237087726593018e+000</stageThreshold>
      <weakClassifiers>
        <_>
          <internalNodes>
            0 -1 193 -922779409 349101946 -1405407634 2666094 1291798109
            -1476595721 -251663666 -1065196806</internalNodes>
          <leafValues>
            -5.5012345314025879e-001 6.2891656160354614e-001</leafValues></_>
        <_>
          <internalNodes>
            0 -1 290 37881344 1952055364 -1245650665 -564991086
            -1668637199 -318103454 -1702127183 -1429036116</internalNodes>
          <leafValues>
            -7.5821393728256226e-001 4.2800325155258179e-001</leafValues></_>
        <_>
          <internalNodes>
            0 -1 100 -371746097 601565418 -84034450 1065205759
            -135938219 -269174983 -1342881875 1843183194</internalNodes>
          <leafValues>
            -4.4675099849700928e-001 6.9009828567504883e-001</leafValues></_>
        <_>
          <internalNodes>
            0 -1 276 -250548968 1073226195 2147315639 -1112684700
            -428755555 -7028882 -1212483189 -1075507901</internalNodes>
          <leafValues>
            -4.1226235032081604e-001 7.8063511848449707e-001</leafValues></_>
        <_>
          <internalNodes>
            0 -1 13 -1865367166 -2138337748 -2137553524 503349663
            1418475172 1990755499 -888364064 933764078</internalNodes>
          <leafValues>
            -1.2039487361907959e+000 2.7854472398757935e-001</leafValues></_>
        <_>
          <internalNodes>
            0 -1 47 -812143101 -234527730 269158536 1951027850
            1288640347 46833033 1682919715 1106805075</internalNodes>
          <leafValues>
            -8.4226679801940918e-001 3.7784701585769653e-001</leafValues></_>
        <_>
          <internalNodes>
            0 -1 44 76067768 -1370809910 -654274116 -2028031905
            -1061418002 1687709700 1653227855 745235270</internalNodes>
          <leafValues>
            -8.0259120464324951e-001 3.7966701388359070e-001</leafValues></_>
        <_>
          <internalNodes>
            0 -1 49 -143348693 334184363 1727266787 -1594032449 -8488135
            -17924098 -671186946 1953265649</internalNodes>
          <leafValues>
            -4.6868154406547546e-001 6.5894490480422974e-001</leafValues></_>
        <_>
          <internalNodes>
            0 -1 165 1209342017 -1836198750 -686170433 1883560666
            -1566195276 -1190821883 -1565490891 -1832599168</internalNodes>
          <leafValues>
            -7.4208366870880127e-001 4.3522959947586060e-001</leafValues></_>
        <_>
          <internalNodes>
            0 -1 88 -2013220112 -1274015664 -2129454926 -1152298629
            50397358 157319304 -2088700708 4460816</internalNodes>
          <leafValues>
            -1.0366392135620117e+000 3.1339505314826965e-001</leafValues></_>
        <_>
          <internalNodes>
            0 -1 59 1225893745 -1147961317 -788440803 1326641417
            76571129 2071986641 1792362295 -403821660</internalNodes>
          <leafValues>
            -6.1933308839797974e-001 5.1389151811599731e-001</leafValues></_>
        <_>
          <internalNodes>
            0 -1 250 -97049842 448975177 -1778333267 -50543743
            1720955407 1410639901 1317013519 1409068</internalNodes>
          <leafValues>
            -8.2428240776062012e-001 3.7122687697410583e-001</leafValues></_>
        <_>
          <internalNodes>
            0 -1 162 -347154376 -1197321650 1661673603 217448458
            1166913567 1936171013 1619251353 -1662030973</internalNodes>
          <leafValues>
            -6.1597281694412231e-001 5.1282972097396851e-001</leafValues></_>
        <_>
          <internalNodes>
            0 -1 129 -362041609 -142868810 -206930318 2033069942
            1635772284 -306907282 -17534486 -77073292</internalNodes>
          <leafValues>
            -4.6181002259254456e-001 6.5704548358917236e-001</leafValues></_>
        <_>
          <internalNodes>
            0 -1 299 1452272957 387223898 16847440 644841489 -1901694502
            717851264 -2110905168 -796136969</internalNodes>
          <leafValues>
            -5.8006203174591064e-001 5.2442955970764160e-001</leafValues></_>
        <_>
          <internalNodes>
            0 -1 309 -918042425 -992574997 -2147477258 -99544830
            857563635 52927154 -1962155227 -700415652</internalNodes>
          <leafValues>
            -7.1089053153991699e-001 4.3035820126533508e-001</leafValues></_>
        <_>
          <internalNodes>
            0 -1 175 2110531256 -1353674028 1174503563 1163514053
            813785786 436326731 1410429447 773296138</internalNodes>
          <leafValues>
            -9.0369975566864014e-001 3.0682802200317383e-001</leafValues></_>
        <_>
          <internalNodes>
            0 -1 214 1285207892 -1649262810 -1695257793 -572101062
            -1521209388 -1095337985 -1080242449 -1076942597</internalNodes>
          <leafValues>
            -4.2540320754051208e-001 6.6928136348724365e-001</leafValues></_></weakClassifiers></_>
    <!-- stage 16 -->
    <_>
      <maxWeakCount>26</maxWeakCount>
      <stageThreshold>-2.9335403442382813e+000</stageThreshold>
      <weakClassifiers>
        <_>
          <internalNodes>
            0 -1 135 1526547490 713876639 1080218386 -1440929808
            -1027288606 -352270066 -1737771198 1785012976</internalNodes>
          <leafValues>
            -7.5958186388015747e-001 5.0694656372070313e-001</leafValues></_>
        <_>
          <internalNodes>
            0 -1 95 -396325216 -1793354980 1410973947 286955506
            1451911952 1927121650 -936889655 -796371197</internalNodes>
          <leafValues>
            -8.8124597072601318e-001 3.5817766189575195e-001</leafValues></_>
        <_>
          <internalNodes>
            0 -1 155 721715784 -525336107 -1022053520 -1582149172
            88355076 -1449099085 -692911416 1943941201</internalNodes>
          <leafValues>
            -1.0553339719772339e+000 2.9898992180824280e-001</leafValues></_>
        <_>
          <internalNodes>
            0 -1 243 1082362858 1352274312 -753662070 282214649
            1353691345 1353785361 -1198664707 -1073629013</internalNodes>
          <leafValues>
            -7.1672701835632324e-001 4.6666121482849121e-001</leafValues></_>
        <_>
          <internalNodes>
            0 -1 283 -1148057570 1332766841 996371396 910479866
            1109393428 205789696 -771742954 271088507</internalNodes>
          <leafValues>
            -1.1609410047531128e+000 2.7507197856903076e-001</leafValues></_>
        <_>
          <internalNodes>
            0 -1 189 83430941 439877688 -780086967 172970012 984164494
            -1618573153 -763356996 -1464302480</internalNodes>
          <leafValues>
            -8.8921773433685303e-001 3.6175233125686646e-001</leafValues></_>
        <_>
          <internalNodes>
            0 -1 25 330750624 1084907006 1455423506 639832083 -951588015
            570736771 1143969856 -157024156</internalNodes>
          <leafValues>
            -1.0458443164825439e+000 2.7751365303993225e-001</leafValues></_>
        <_>
          <internalNodes>
            0 -1 75 71303488 -1152335807 -1592771150 1276346449
            153545377 705208394 109191987 805576771</internalNodes>
          <leafValues>
            -1.2083383798599243e+000 2.6273134350776672e-001</leafValues></_>
        <_>
          <internalNodes>
            0 -1 321 1759487258 1498829278 1141151874 -1646292946
            -1996355110 577784089 1355784898 -727584158</internalNodes>
          <leafValues>
            -5.7946079969406128e-001 5.4979681968688965e-001</leafValues></_>
        <_>
          <internalNodes>
            0 -1 130 -723953902 -1569683014 1208570171 -1867513772
            -931059340 1531988870 -894220082 -1798596561</internalNodes>
          <leafValues>
            -6.0134637355804443e-001 5.0984293222427368e-001</leafValues></_>
        <_>
          <internalNodes>
            0 -1 226 -643605505 -917639553 -185647547 939323125
            1753047007 2130114007 -327158529 -18356619</internalNodes>
          <leafValues>
            -3.4677928686141968e-001 9.1871833801269531e-001</leafValues></_>
        <_>
          <internalNodes>
            0 -1 286 -1691255540 -1216339576 1514149945 -799577977
            -930044364 1883390976 -1494441077 362001066</internalNodes>
          <leafValues>
            -6.4946043491363525e-001 4.7944182157516479e-001</leafValues></_>
        <_>
          <internalNodes>
            0 -1 266 -845152589 1506667940 -272647170 -2002223490
            2125151979 1828487063 1358489256 -1979449686</internalNodes>
          <leafValues>
            -5.0956761837005615e-001 5.8252495527267456e-001</leafValues></_>
        <_>
          <internalNodes>
            0 -1 0 -1029037788 508455370 -2004467574 -654030430
            612675748 -1425620992 1044738871 79984007</internalNodes>
          <leafValues>
            -9.0299749374389648e-001 3.2173791527748108e-001</leafValues></_>
        <_>
          <internalNodes>
            0 -1 5 -1327017005 -1146160147 -1081468 1073676271
            1810729868 -1497395266 -4319 -1526828356</internalNodes>
          <leafValues>
            -4.2938646674156189e-001 7.0079654455184937e-001</leafValues></_>
        <_>
          <internalNodes>
            0 -1 181 -642523428 -106795602 -16859282 838813052
            -656919092 804283489 -78262 -1088737398</internalNodes>
          <leafValues>
            -4.0635851025581360e-001 7.2624981403350830e-001</leafValues></_>
        <_>
          <internalNodes>
            0 -1 287 -591790417 -20971598 -1083296080 1740631871
            1413280927 -382205953 -1112103847 -189335822</internalNodes>
          <leafValues>
            -2.9366099834442139e-001 9.5061582326889038e-001</leafValues></_>
        <_>
          <internalNodes>
            0 -1 51 -267657841 -1755785953 -1018689510 239149380
            2060138740 2081357826 168526397 -2051831029</internalNodes>
          <leafValues>
            -5.2600973844528198e-001 5.2125602960586548e-001</leafValues></_>
        <_>
          <internalNodes>
            0 -1 201 -167978561 -1061191 1003634425 -1275088971
            1073000383 -151998600 -1099864129 -668621199</internalNodes>
          <leafValues>
            -3.8164597749710083e-001 7.3326188325881958e-001</leafValues></_>
        <_>
          <internalNodes>
            0 -1 71 -1995994534 727053348 135043352 693144605 -934803436
            -762271450 18162687 1618041811</internalNodes>
          <leafValues>
            -6.7749339342117310e-001 4.3516689538955688e-001</leafValues></_>
        <_>
          <internalNodes>
            0 -1 28 1186577424 -1761808645 -1090572550 -1929531652
            1039963273 1295318525 -998871045 -290333702</internalNodes>
          <leafValues>
            -4.9777483940124512e-001 5.6088840961456299e-001</leafValues></_>
        <_>
          <internalNodes>
            0 -1 147 -1877499030 143933492 566315240 -504409660
            1528308148 318341248 1484798544 5860432</internalNodes>
          <leafValues>
            -9.3648886680603027e-001 2.9861131310462952e-001</leafValues></_>
        <_>
          <internalNodes>
            0 -1 322 -478436557 1462085743 -537248208 1391378350
            528324163 -1233174914 -1623199746 -121338482</internalNodes>
          <leafValues>
            -4.2840078473091125e-001 6.1499148607254028e-001</leafValues></_>
        <_>
          <internalNodes>
            0 -1 11 1345512391 -1845460326 1561178248 533385788
            1235653411 6200 1135605578 -1870466067</internalNodes>
          <leafValues>
            -4.9371430277824402e-001 5.0572156906127930e-001</leafValues></_>
        <_>
          <internalNodes>
            0 -1 275 -994293740 1971737004 -742276913 30654869
            1700463844 1107986682 -1506275192 141560378</internalNodes>
          <leafValues>
            -7.5524610280990601e-001 3.3989006280899048e-001</leafValues></_>
        <_>
          <internalNodes>
            0 -1 247 -768573731 -174039300 -1342275595 2046389471
            -1401110562 -1627455494 -1126912291 -1143206737</internalNodes>
          <leafValues>
            -3.6779496073722839e-001 7.2768974304199219e-001</leafValues></_></weakClassifiers></_>
    <!-- stage 17 -->
    <_>
      <maxWeakCount>24</maxWeakCount>
      <stageThreshold>-2.6172549724578857e+000</stageThreshold>
      <weakClassifiers>
        <_>
          <internalNodes>
            0 -1 138 536389800 64891479 553728171 414122025 941209791
            939671631 -71599301 439291936</internalNodes>
          <leafValues>
            -9.5075374841690063e-001 4.0717586874961853e-001</leafValues></_>
        <_>
          <internalNodes>
            0 -1 296 1186677161 1074850782 -238517380 430466046
            -918344926 1436571779 138686564 92128186</internalNodes>
          <leafValues>
            -8.3942335844039917e-001 3.7161946296691895e-001</leafValues></_>
        <_>
          <internalNodes>
            0 -1 152 613549357 -741320905 -787114151 -1991912062
            1627394478 -855506749 1171394586 -1951789767</internalNodes>
          <leafValues>
            -8.8063174486160278e-001 3.8663622736930847e-001</leafValues></_>
        <_>
          <internalNodes>
            0 -1 21 897279916 -2024057850 1115857514 -1001012224
            2046099456 204046479 1623982080 1749090980</internalNodes>
          <leafValues>
            -1.0041558742523193e+000 3.3624228835105896e-001</leafValues></_>
        <_>
          <internalNodes>
            0 -1 236 -1326392019 -2096803460 546432258 35727436
            805920833 857440323 -927340860 -1073100736</internalNodes>
          <leafValues>
            -8.0188673734664917e-001 3.8691452145576477e-001</leafValues></_>
        <_>
          <internalNodes>
            0 -1 183 -329003188 1756924278 -753329904 2093489496
            -486323900 -1811752609 2089916504 -1665675997</internalNodes>
          <leafValues>
            -7.3668682575225830e-001 4.3369913101196289e-001</leafValues></_>
        <_>
          <internalNodes>
            0 -1 267 -222055759 1107320994 1700205273 -1693392496
            -100599582 -1643585384 967631232 -2003693382</internalNodes>
          <leafValues>
            -6.6761547327041626e-001 4.5070981979370117e-001</leafValues></_>
        <_>
          <internalNodes>
            0 -1 139 1450634288 968860099 1815351640 -1373224351
            -1165916383 -402513784 -1956308394 33369073</internalNodes>
          <leafValues>
            -9.1731214523315430e-001 3.1727644801139832e-001</leafValues></_>
        <_>
          <internalNodes>
            0 -1 180 1143211872 -1474555214 -1681604017 -1312292541
            10637717 -769127708 1888536813 -394065000</internalNodes>
          <leafValues>
            -1.0770678520202637e+000 3.0624806880950928e-001</leafValues></_>
        <_>
          <internalNodes>
            0 -1 126 -852309966 -2074365370 162906189 -2025192957
            -1844573946 -37175271 -1517460755 76948224</internalNodes>
          <leafValues>
            -8.4905260801315308e-001 3.5966482758522034e-001</leafValues></_>
        <_>
          <internalNodes>
            0 -1 76 1285725987 1595749278 -1845411010 -1475939963
            1526831454 1787333080 1032407770 -341017633</internalNodes>
          <leafValues>
            -5.7679855823516846e-001 5.1750475168228149e-001</leafValues></_>
        <_>
          <internalNodes>
            0 -1 134 -505964961 -1293159315 -318898181 1844424428
            -857371504 2146891701 1694471781 1763114388</internalNodes>
          <leafValues>
            -4.6339589357376099e-001 6.4506477117538452e-001</leafValues></_>
        <_>
          <internalNodes>
            0 -1 105 -93071853 -906658066 -141707474 1273012195
            561314542 -1361051685 -941767209 -42176798</internalNodes>
          <leafValues>
            -4.4248557090759277e-001 6.5733826160430908e-001</leafValues></_>
        <_>
          <internalNodes>
            0 -1 33 -233964784 1621520390 -918486742 160991662 625502173
            -488451959 -930270637 1154770288</internalNodes>
          <leafValues>
            -9.0715849399566650e-001 3.2692778110504150e-001</leafValues></_>
        <_>
          <internalNodes>
            0 -1 179 -96863820 284769216 -186810854 293392178 956073206
            -1628250634 2145242602 -1534169305</internalNodes>
          <leafValues>
            -4.9743705987930298e-001 5.9992486238479614e-001</leafValues></_>
        <_>
          <internalNodes>
            0 -1 58 -2142629626 777351194 -1659890914 134270162
            2064919061 141967625 -1333576756 1198680855</internalNodes>
          <leafValues>
            -1.0024241209030151e+000 2.7313622832298279e-001</leafValues></_>
        <_>
          <internalNodes>
            0 -1 327 525056 1574531937 381126 782745664 -897449372
            464453961 -1676936365 1622164225</internalNodes>
          <leafValues>
            -1.0405504703521729e+000 2.5974768400192261e-001</leafValues></_>
        <_>
          <internalNodes>
            0 -1 83 1916452607 1073560443 1878833719 1578737458
            -1208144139 -277151877 2147347118 -714620986</internalNodes>
          <leafValues>
            -4.3609595298767090e-001 6.2129986286163330e-001</leafValues></_>
        <_>
          <internalNodes>
            0 -1 305 -1460018641 -13635593 251541492 1073413998 -672636
            1589078838 -571475286 -1066403458</internalNodes>
          <leafValues>
            -4.3097233772277832e-001 6.3696253299713135e-001</leafValues></_>
        <_>
          <internalNodes>
            0 -1 166 -1338519007 -307036204 -1149239513 -575539521
            -1625516074 -282788099 729048660 -718551809</internalNodes>
          <leafValues>
            -4.6070972084999084e-001 6.4153730869293213e-001</leafValues></_>
        <_>
          <internalNodes>
            0 -1 233 -663988783 -718487876 1040170493 -71729636
            -1105734220 -436308483 1727454689 -1344467925</internalNodes>
          <leafValues>
            -4.4030168652534485e-001 6.3100576400756836e-001</leafValues></_>
        <_>
          <internalNodes>
            0 -1 310 1309917476 1929815176 -855353138 1087553228
            1292372562 1648386110 -1071839085 1142988401</internalNodes>
          <leafValues>
            -8.3656859397888184e-001 3.3221948146820068e-001</leafValues></_>
        <_>
          <internalNodes>
            0 -1 254 -1683704793 -1615557399 -1132511277 322006143
            1818930929 -65618 -1375799361 2013103354</internalNodes>
          <leafValues>
            -4.6627676486968994e-001 5.8259522914886475e-001</leafValues></_>
        <_>
          <internalNodes>
            0 -1 292 882964537 1394197068 -981401519 720482637
            1082332032 879354571 -2012963848 -932429246</internalNodes>
          <leafValues>
            -6.3789582252502441e-001 4.1758528351783752e-001</leafValues></_></weakClassifiers></_>
    <!-- stage 18 -->
    <_>
      <maxWeakCount>23</maxWeakCount>
      <stageThreshold>-2.4647517204284668e+000</stageThreshold>
      <weakClassifiers>
        <_>
          <internalNodes>
            0 -1 206 1606157740 1049494684 84091853 906821802 212551283
            436355662 402735949 140076667</internalNodes>
          <leafValues>
            -1.1758241653442383e+000 3.5264226794242859e-001</leafValues></_>
        <_>
          <internalNodes>
            0 -1 102 -1979696449 -590311271 1535890765 1841483925
            683683139 -1438608894 -1978169319 367430557</internalNodes>
          <leafValues>
            -8.4768420457839966e-001 3.5737222433090210e-001</leafValues></_>
        <_>
          <internalNodes>
            0 -1 244 -120215756 1365234116 -1308569256 1815784262
            -1331099324 161611845 -1664051012 4409352</internalNodes>
          <leafValues>
            -8.4212368726730347e-001 3.5030800104141235e-001</leafValues></_>
        <_>
          <internalNodes>
            0 -1 128 -247930438 1176535176 1158772843 -503036533
            -536767955 1529544238 -74102523 1174981635</internalNodes>
          <leafValues>
            -8.5643404722213745e-001 3.5334244370460510e-001</leafValues></_>
        <_>
          <internalNodes>
            0 -1 17 -1873238272 92311950 -1852487710 378274577 981496657
            -684947327 278178804 115882176</internalNodes>
          <leafValues>
            -1.1693391799926758e+000 2.5935903191566467e-001</leafValues></_>
        <_>
          <internalNodes>
            0 -1 14 -1228931837 1309065667 -767327086 -595537526
            1073940685 -367504980 1490912374 1972436078</internalNodes>
          <leafValues>
            -6.6547733545303345e-001 4.5479038357734680e-001</leafValues></_>
        <_>
          <internalNodes>
            0 -1 216 -200008335 -235111211 1073674237 -1648554115
            -1800483436 -1108067081 1069359096 -1075637777</internalNodes>
          <leafValues>
            -4.3427929282188416e-001 6.8631845712661743e-001</leafValues></_>
        <_>
          <internalNodes>
            0 -1 61 -641628106 -564297456 -200240449 175836573 671097843
            -937178821 -2103882123 187179013</internalNodes>
          <leafValues>
            -7.9828625917434692e-001 3.7952047586441040e-001</leafValues></_>
        <_>
          <internalNodes>
            0 -1 153 150981063 -2009402516 1861582396 620552191
            -553748485 -269003395 -830654581 -479254337</internalNodes>
          <leafValues>
            -4.0413400530815125e-001 6.9287532567977905e-001</leafValues></_>
        <_>
          <internalNodes>
            0 -1 173 -992794843 -1722232750 -733883083 48011480
            2021854333 -1180153682 436692053 -1608341216</internalNodes>
          <leafValues>
            -7.8644335269927979e-001 3.7160089612007141e-001</leafValues></_>
        <_>
          <internalNodes>
            0 -1 112 -358601605 -1408014 -143773828 -1289089184
            1192583048 -1108562469 -724045913 -238471222</internalNodes>
          <leafValues>
            -4.9223318696022034e-001 6.4448678493499756e-001</leafValues></_>
        <_>
          <internalNodes>
            0 -1 249 105548209 513570898 831615320 -1614003299
            1360633865 -660340342 -242865423 -1079096096</internalNodes>
          <leafValues>
            -6.1767280101776123e-001 4.9134093523025513e-001</leafValues></_>
        <_>
          <internalNodes>
            0 -1 227 -614207789 -677218633 -34819 -688408782 -860556140
            -499656747 -1745416866 -1145613257</internalNodes>
          <leafValues>
            -4.0667557716369629e-001 7.0105963945388794e-001</leafValues></_>
        <_>
          <internalNodes>
            0 -1 307 787177888 16044930 -2145582826 293741142
            -2087950286 1413481216 18587552 1097716361</internalNodes>
          <leafValues>
            -9.6567761898040771e-001 3.0939620733261108e-001</leafValues></_>
        <_>
          <internalNodes>
            0 -1 140 -978739213 -781320844 -184549569 520093436
            1602188638 2147351895 -445253821 -360909638</internalNodes>
          <leafValues>
            -3.7436777353286743e-001 7.1187078952789307e-001</leafValues></_>
        <_>
          <internalNodes>
            0 -1 308 -419002727 -9035581 855802693 1250025472 -276097611
            -2146922485 1342718321 -599345122</internalNodes>
          <leafValues>
            -5.3346818685531616e-001 4.9988347291946411e-001</leafValues></_>
        <_>
          <internalNodes>
            0 -1 101 -2089940788 503381066 -251571869 570609486
            916120839 181031251 1225810567 983671073</internalNodes>
          <leafValues>
            -9.2222028970718384e-001 2.7778291702270508e-001</leafValues></_>
        <_>
          <internalNodes>
            0 -1 205 506913740 1787467405 -1861695644 1892859950
            -1216208415 -1557948214 -1568666753 891453935</internalNodes>
          <leafValues>
            -7.1917587518692017e-001 3.5984575748443604e-001</leafValues></_>
        <_>
          <internalNodes>
            0 -1 41 -566251945 279768659 2011561979 2004483857
            -948469797 -354484353 1929246715 -303221834</internalNodes>
          <leafValues>
            -3.6444953083992004e-001 7.1440726518630981e-001</leafValues></_>
        <_>
          <internalNodes>
            0 -1 53 -1601043328 840127062 17247244 841351258 794909510
            42613497 -1601650133 1195808213</internalNodes>
          <leafValues>
            -9.6131402254104614e-001 2.6718842983245850e-001</leafValues></_>
        <_>
          <internalNodes>
            0 -1 278 -897322087 406995072 84771288 -1314684780
            1870670820 1787449498 -494075504 -2129920086</internalNodes>
          <leafValues>
            -5.6604915857315063e-001 4.5898300409317017e-001</leafValues></_>
        <_>
          <internalNodes>
            0 -1 96 -300039043 -1947238264 -1795030694 1881190930
            -133692665 -1356823804 59607118 1410408729</internalNodes>
          <leafValues>
            -6.0335493087768555e-001 4.2355790734291077e-001</leafValues></_>
        <_>
          <internalNodes>
            0 -1 176 1151343942 -1093795496 1996789389 -336719797
            560494262 583323971 -1730381280 1669666923</internalNodes>
          <leafValues>
            -7.2911202907562256e-001 3.3931854367256165e-001</leafValues></_></weakClassifiers></_>
    <!-- stage 19 -->
    <_>
      <maxWeakCount>19</maxWeakCount>
      <stageThreshold>-2.0619871616363525e+000</stageThreshold>
      <weakClassifiers>
        <_>
          <internalNodes>
            0 -1 239 1719073764 -558455177 -273843203 -1343035977
            770777748 -2097819561 1525899143 1061623651</internalNodes>
          <leafValues>
            -5.1786589622497559e-001 6.0130220651626587e-001</leafValues></_>
        <_>
          <internalNodes>
            0 -1 10 -1613891789 1312973582 -518811410 -171915690
            269066717 -1978859505 -114074809 1957776868</internalNodes>
          <leafValues>
            -6.4591121673583984e-001 4.7519299387931824e-001</leafValues></_>
        <_>
          <internalNodes>
            0 -1 56 546711848 964759749 -2141605521 1640100097 973613118
            -90496848 134218059 190613504</internalNodes>
          <leafValues>
            -1.0273427963256836e+000 2.9424101114273071e-001</leafValues></_>
        <_>
          <internalNodes>
            0 -1 115 -1996643837 308517249 268495102 -1295081350
            -921101484 1862504448 1325414408 -750123948</internalNodes>
          <leafValues>
            -8.5965371131896973e-001 3.5511872172355652e-001</leafValues></_>
        <_>
          <internalNodes>
            0 -1 219 1895133296 1948565137 1056931481 1604623995
            -1940083781 -1107512092 -1347423429 439044015</internalNodes>
          <leafValues>
            -4.9054959416389465e-001 6.6897410154342651e-001</leafValues></_>
        <_>
          <internalNodes>
            0 -1 103 1792363568 -2136561369 -1669573338 -1303326396
            1640502523 2063630337 -1819806338 -1466952910</internalNodes>
          <leafValues>
            -8.1596028804779053e-001 3.7164238095283508e-001</leafValues></_>
        <_>
          <internalNodes>
            0 -1 263 1581449428 -185859148 -1593638383 -2045017080
            -208804359 -2007439269 3093055 1177950465</internalNodes>
          <leafValues>
            -6.1553269624710083e-001 4.8554807901382446e-001</leafValues></_>
        <_>
          <internalNodes>
            0 -1 54 1878323687 79742302 1359299088 -58539576 1708054883
            713148993 105235812 638571224</internalNodes>
          <leafValues>
            -7.0413434505462646e-001 4.1298222541809082e-001</leafValues></_>
        <_>
          <internalNodes>
            0 -1 220 -456614669 536588094 1056632791 -709252151
            2146780764 -406880412 -2100187330 -120984459</internalNodes>
          <leafValues>
            -4.7802016139030457e-001 6.5434509515762329e-001</leafValues></_>
        <_>
          <internalNodes>
            0 -1 245 -193134636 625499430 804962164 932658745
            -1283928171 -1598425603 796732063 -1343255141</internalNodes>
          <leafValues>
            -3.6470508575439453e-001 7.5974977016448975e-001</leafValues></_>
        <_>
          <internalNodes>
            0 -1 8 1039777729 280473519 -151212116 -1224970241
            -536907060 2143244280 2013243295 -1612286020</internalNodes>
          <leafValues>
            -4.6832963824272156e-001 6.4193528890609741e-001</leafValues></_>
        <_>
          <internalNodes>
            0 -1 64 -1610551422 747278337 1268324374 -1844903343
            33774379 -1902071477 319166837 1179488423</internalNodes>
          <leafValues>
            -9.7781014442443848e-001 3.1171551346778870e-001</leafValues></_>
        <_>
          <internalNodes>
            0 -1 302 1376739684 1717490064 -1866252257 -417864944
            -1974901077 -2146532686 646840385 1166539792</internalNodes>
          <leafValues>
            -7.7546465396881104e-001 3.5288369655609131e-001</leafValues></_>
        <_>
          <internalNodes>
            0 -1 111 -598401780 94712192 -531528375 -1544549481
            -2146991887 563037321 -2146581753 1657324515</internalNodes>
          <leafValues>
            -6.4700561761856079e-001 4.2412337660789490e-001</leafValues></_>
        <_>
          <internalNodes>
            0 -1 107 -1805701092 -1488379575 1845576719 159617345
            -1599334328 2109951652 -1467481396 738265410</internalNodes>
          <leafValues>
            -6.7711234092712402e-001 4.1555470228195190e-001</leafValues></_>
        <_>
          <internalNodes>
            0 -1 295 1929213343 451002347 -65692 871362478 1810327450
            -2055211237 1488627666 -446524145</internalNodes>
          <leafValues>
            -4.3092471361160278e-001 6.3830834627151489e-001</leafValues></_>
        <_>
          <internalNodes>
            0 -1 246 -1075470241 -669392400 -1073861249 -186204525
            -135127713 -1342800268 1606229753 -307831822</internalNodes>
          <leafValues>
            -4.5566484332084656e-001 6.0640746355056763e-001</leafValues></_>
        <_>
          <internalNodes>
            0 -1 259 -2066693500 339784728 1543520733 528745622
            838992513 2024943619 144790272 469790216</internalNodes>
          <leafValues>
            -7.5912052392959595e-001 3.7235182523727417e-001</leafValues></_>
        <_>
          <internalNodes>
            0 -1 203 -294934958 866816488 1284739081 595774382
            -2113388410 1778403971 134907914 85535454</internalNodes>
          <leafValues>
            -6.4849781990051270e-001 4.4336357712745667e-001</leafValues></_></weakClassifiers></_></stages>
  <features>
    <_>
      <rect>
        0 0 3 5</rect></_>
    <_>
      <rect>
        0 0 5 5</rect></_>
    <_>
      <rect>
        0 0 5 6</rect></_>
    <_>
      <rect>
        0 0 7 7</rect></_>
    <_>
      <rect>
        0 0 8 7</rect></_>
    <_>
      <rect>
        0 0 9 9</rect></_>
    <_>
      <rect>
        0 0 10 4</rect></_>
    <_>
      <rect>
        0 0 10 9</rect></_>
    <_>
      <rect>
        0 1 9 10</rect></_>
    <_>
      <rect>
        0 2 10 9</rect></_>
    <_>
      <rect>
        0 3 2 4</rect></_>
    <_>
      <rect>
        0 3 4 5</rect></_>
    <_>
      <rect>
        0 4 9 5</rect></_>
    <_>
      <rect>
        0 4 10 9</rect></_>
    <_>
      <rect>
        0 7 2 3</rect></_>
    <_>
      <rect>
        0 7 5 8</rect></_>
    <_>
      <rect>
        0 7 7 8</rect></_>
    <_>
      <rect>
        0 7 10 7</rect></_>
    <_>
      <rect>
        0 9 4 7</rect></_>
    <_>
      <rect>
        0 9 5 6</rect></_>
    <_>
      <rect>
        0 10 3 6</rect></_>
    <_>
      <rect>
        0 10 3 7</rect></_>
    <_>
      <rect>
        0 10 9 7</rect></_>
    <_>
      <rect>
        0 11 6 7</rect></_>
    <_>
      <rect>
        0 13 7 5</rect></_>
    <_>
      <rect>
        0 14 8 6</rect></_>
    <_>
      <rect>
        0 15 4 5</rect></_>
    <_>
      <rect>
        0 16 10 5</rect></_>
    <_>
      <rect>
        0 17 3 5</rect></_>
    <_>
      <rect>
        0 17 9 5</rect></_>
    <_>
      <rect>
        0 23 7 3</rect></_>
    <_>
      <rect>
        1 0 3 8</rect></_>
    <_>
      <rect>
        1 0 6 4</rect></_>
    <_>
      <rect>
        1 3 2 4</rect></_>
    <_>
      <rect>
        1 3 4 4</rect></_>
    <_>
      <rect>
        1 3 9 5</rect></_>
    <_>
      <rect>
        1 4 4 6</rect></_>
    <_>
      <rect>
        1 5 4 6</rect></_>
    <_>
      <rect>
        1 7 7 3</rect></_>
    <_>
      <rect>
        1 9 3 6</rect></_>
    <_>
      <rect>
        1 11 6 4</rect></_>
    <_>
      <rect>
        1 11 7 7</rect></_>
    <_>
      <rect>
        1 12 4 4</rect></_>
    <_>
      <rect>
        1 19 6 4</rect></_>
    <_>
      <rect>
        2 0 7 4</rect></_>
    <_>
      <rect>
        2 0 9 8</rect></_>
    <_>
      <rect>
        2 4 2 3</rect></_>
    <_>
      <rect>
        2 5 3 4</rect></_>
    <_>
      <rect>
        2 7 6 8</rect></_>
    <_>
      <rect>
        2 9 9 7</rect></_>
    <_>
      <rect>
        2 13 2 5</rect></_>
    <_>
      <rect>
        2 16 4 5</rect></_>
    <_>
      <rect>
        2 17 3 5</rect></_>
    <_>
      <rect>
        3 7 6 4</rect></_>
    <_>
      <rect>
        3 8 2 4</rect></_>
    <_>
      <rect>
        3 10 5 4</rect></_>
    <_>
      <rect>
        3 10 9 4</rect></_>
    <_>
      <rect>
        3 13 9 5</rect></_>
    <_>
      <rect>
        3 23 3 3</rect></_>
    <_>
      <rect>
        4 0 4 8</rect></_>
    <_>
      <rect>
        4 0 6 5</rect></_>
    <_>
      <rect>
        4 1 5 2</rect></_>
    <_>
      <rect>
        4 2 3 4</rect></_>
    <_>
      <rect>
        4 3 8 5</rect></_>
    <_>
      <rect>
        4 4 3 4</rect></_>
    <_>
      <rect>
        4 4 9 8</rect></_>
    <_>
      <rect>
        4 5 9 8</rect></_>
    <_>
      <rect>
        4 10 3 4</rect></_>
    <_>
      <rect>
        4 14 9 6</rect></_>
    <_>
      <rect>
        4 19 3 3</rect></_>
    <_>
      <rect>
        4 20 3 3</rect></_>
    <_>
      <rect>
        4 23 3 3</rect></_>
    <_>
      <rect>
        4 26 7 2</rect></_>
    <_>
      <rect>
        5 0 4 6</rect></_>
    <_>
      <rect>
        5 0 6 3</rect></_>
    <_>
      <rect>
        5 0 8 2</rect></_>
    <_>
      <rect>
        5 2 7 9</rect></_>
    <_>
      <rect>
        5 2 7 10</rect></_>
    <_>
      <rect>
        5 3 3 5</rect></_>
    <_>
      <rect>
        5 3 6 9</rect></_>
    <_>
      <rect>
        5 13 2 5</rect></_>
    <_>
      <rect>
        5 15 7 5</rect></_>
    <_>
      <rect>
        5 16 3 5</rect></_>
    <_>
      <rect>
        5 17 3 5</rect></_>
    <_>
      <rect>
        5 18 2 3</rect></_>
    <_>
      <rect>
        6 0 4 3</rect></_>
    <_>
      <rect>
        6 0 6 3</rect></_>
    <_>
      <rect>
        6 2 6 6</rect></_>
    <_>
      <rect>
        6 3 2 3</rect></_>
    <_>
      <rect>
        6 3 3 3</rect></_>
    <_>
      <rect>
        6 5 4 6</rect></_>
    <_>
      <rect>
        6 6 5 3</rect></_>
    <_>
      <rect>
        6 7 7 6</rect></_>
    <_>
      <rect>
        6 11 6 3</rect></_>
    <_>
      <rect>
        6 12 3 6</rect></_>
    <_>
      <rect>
        6 15 3 3</rect></_>
    <_>
      <rect>
        6 17 2 3</rect></_>
    <_>
      <rect>
        6 19 2 3</rect></_>
    <_>
      <rect>
        6 20 3 3</rect></_>
    <_>
      <rect>
        6 23 5 3</rect></_>
    <_>
