<?xml version="1.0"?>
<opencv_storage>
<cascade>
  <stageType>BOOST</stageType>
  <featureType>LBP</featureType>
  <height>32</height>
  <width>32</width>
  <stageParams>
    <boostType>LB</boostType>
    <minHitRate>9.9500000476837158e-001</minHitRate>
    <maxFalseAlarm>5.0000000000000000e-001</maxFalseAlarm>
    <weightTrimRate>9.4999999999999996e-001</weightTrimRate>
    <maxDepth>1</maxDepth>
    <maxWeakCount>200</maxWeakCount></stageParams>
  <featureParams>
    <maxCatCount>256</maxCatCount>
    <featSize>1</featSize></featureParams>
  <stageNum>20</stageNum>
  <stages>
    <!-- stage 0 -->
    <_>
      <maxWeakCount>6</maxWeakCount>
      <stageThreshold>-2.5133831501007080e+000</stageThreshold>
      <weakClassifiers>
        <_>
          <internalNodes>
            0 -1 121 6291456 -4730777 78128 -36072997 1674047999
            -1146883106 151108606 -67243009</internalNodes>
          <leafValues>
            -1.2223602533340454e+000 1.0521662235260010e+000</leafValues></_>
        <_>
          <internalNodes>
            0 -1 77 -1073549774 -583867389 -686960102 -234309102
            1376933744 -415055742 -91882565 -303039817</internalNodes>
          <leafValues>
            -1.2145295143127441e+000 8.4057623147964478e-001</leafValues></_>
        <_>
          <internalNodes>
            0 -1 73 -1977210326 -263350857 -551559845 -539586241
            -138511372 -1347706622 -812680193 -1091621107</internalNodes>
          <leafValues>
            -1.0719919204711914e+000 7.9205888509750366e-001</leafValues></_>
        <_>
          <internalNodes>
            0 -1 36 -1841331922 8460559 -2141457649 1861087519
            -1187225474 956334125 -618681369 1787525723</internalNodes>
          <leafValues>
            -1.2758669853210449e+000 6.5532034635543823e-001</leafValues></_>
        <_>
          <internalNodes>
            0 -1 254 -831524893 -465509893 -1280757520 -353048420
            1079882231 67897507 1110385078 -520618255</internalNodes>
          <leafValues>
            -9.4476246833801270e-001 7.5244563817977905e-001</leafValues></_>
        <_>
          <internalNodes>
            0 -1 158 -1174462431 861543216 1501679965 815761736
            -2067547713 -1089502267 -203247912 -1466790142</internalNodes>
          <leafValues>
            -9.8958575725555420e-001 7.1935129165649414e-001</leafValues></_></weakClassifiers></_>
    <!-- stage 1 -->
    <_>
      <maxWeakCount>7</maxWeakCount>
      <stageThreshold>-1.5831896066665649e+000</stageThreshold>
      <weakClassifiers>
        <_>
          <internalNodes>
            0 -1 135 -67131256 -86273 -269112646 -1373526 -537023553
            -4194305 -402708309 -1080694</internalNodes>
          <leafValues>
            -8.2840234041213989e-001 1.1344902515411377e+000</leafValues></_>
        <_>
          <internalNodes>
            0 -1 79 -1035801950 -1076522722 1360649425 1903227334
            1140908468 -116877370 -91964417 -37273</internalNodes>
          <leafValues>
            -1.0031880140304565e+000 8.8082683086395264e-001</leafValues></_>
        <_>
          <internalNodes>
            0 -1 202 -854802348 1215364229 -401931833 2103417499
            -1064708887 -134037087 -2136087078 -908203785</internalNodes>
          <leafValues>
            -9.8777431249618530e-001 7.3250454664230347e-001</leafValues></_>
        <_>
          <internalNodes>
            0 -1 66 -99108093 -1173618089 -159328750 939696146 809754389
            1009830696 -275795126 -238813794</internalNodes>
          <leafValues>
            -9.7696799039840698e-001 7.0803284645080566e-001</leafValues></_>
        <_>
          <internalNodes>
            0 -1 147 -81316561 824917813 -13221929 859225847 -134791185
            -25264137 -151019537 -1303120857</internalNodes>
          <leafValues>
            -7.9447370767593384e-001 9.0789616107940674e-001</leafValues></_>
        <_>
          <internalNodes>
            0 -1 3 -999096325 -91585927 1409583429 -207179495 1183215103
            253234217 1690550389 -456920543</internalNodes>
          <leafValues>
            -7.4947059154510498e-001 8.6990052461624146e-001</leafValues></_>
        <_>
          <internalNodes>
            0 -1 76 -398785766 1767387350 153133099 198246514 -255825605
            -1467907680 -2000616918 139270194</internalNodes>
          <leafValues>
            -1.2496544122695923e+000 4.9435901641845703e-001</leafValues></_></weakClassifiers></_>
    <!-- stage 2 -->
    <_>
      <maxWeakCount>10</maxWeakCount>
      <stageThreshold>-1.7078235149383545e+000</stageThreshold>
      <weakClassifiers>
        <_>
          <internalNodes>
            0 -1 69 -1967478134 -45874673 -587099713 126620414 954776566
            -1451228990 1854428815 -1108537735</internalNodes>
          <leafValues>
            -1.0914826393127441e+000 6.8970811367034912e-001</leafValues></_>
        <_>
          <internalNodes>
            0 -1 30 -936902785 -1965580090 -2080210876 -1431596592
            1078160645 76629352 1381196356 1979709344</internalNodes>
          <leafValues>
            -1.1953154802322388e+000 5.8486831188201904e-001</leafValues></_>
        <_>
          <internalNodes>
            0 -1 234 13765650 314638774 1227379519 -140050155 855835303
            -1852178288 193411467 -134268177</internalNodes>
          <leafValues>
            -9.4904941320419312e-001 7.0294100046157837e-001</leafValues></_>
        <_>
          <internalNodes>
            0 -1 232 -585370569 1074287935 -989652563 -376520562
            1561012756 809720391 -91288018 640666478</internalNodes>
          <leafValues>
            -1.0640057325363159e+000 6.1141914129257202e-001</leafValues></_>
        <_>
          <internalNodes>
            0 -1 67 -231229371 -237531100 1359008786 -798310398
            -134035200 -481254877 -385798144 -262978458</internalNodes>
          <leafValues>
            -1.1235566139221191e+000 5.7109344005584717e-001</leafValues></_>
        <_>
          <internalNodes>
            0 -1 216 68969008 1040187456 287330769 -1084410983
            -1440514864 1238958504 -2014769447 -1074019768</internalNodes>
          <leafValues>
            -8.0639934539794922e-001 7.4841845035552979e-001</leafValues></_>
        <_>
          <internalNodes>
            0 -1 1 -20447233 -5107503 1534559720 -674246368 715848115
            -1961217895 1632324023 258163367</internalNodes>
          <leafValues>
            -7.9161959886550903e-001 8.0785542726516724e-001</leafValues></_>
        <_>
          <internalNodes>
            0 -1 218 -398750873 1601748671 -1392885787 716291445
            -713379883 -1652556291 -327958785 -395140495</internalNodes>
          <leafValues>
            -6.7503172159194946e-001 8.0834990739822388e-001</leafValues></_>
        <_>
          <internalNodes>
            0 -1 203 -293894102 1942737137 193085952 -644576957
            1363943783 1629669417 -498917441 -73047414</internalNodes>
          <leafValues>
            -7.4814474582672119e-001 7.1387296915054321e-001</leafValues></_>
        <_>
          <internalNodes>
            0 -1 109 -210178032 -1037421184 1426174365 -980373007
            -2062446154 -1991539583 -536493869 1908998532</internalNodes>
          <leafValues>
            -1.0104892253875732e+000 5.6113964319229126e-001</leafValues></_></weakClassifiers></_>
    <!-- stage 3 -->
    <_>
      <maxWeakCount>11</maxWeakCount>
      <stageThreshold>-2.3396894931793213e+000</stageThreshold>
      <weakClassifiers>
        <_>
          <internalNodes>
            0 -1 139 69970946 521470109 9445890 -652148158 -2004825462
            1556742361 -804550519 -19165157</internalNodes>
          <leafValues>
            -1.0036846399307251e+000 7.0536780357360840e-001</leafValues></_>
        <_>
          <internalNodes>
            0 -1 59 -2074169369 -1246116357 -1386489739 -1623744183
            209911969 -359135102 1144201713 -1917910986</internalNodes>
          <leafValues>
            -9.7545307874679565e-001 6.6924631595611572e-001</leafValues></_>
        <_>
          <internalNodes>
            0 -1 81 -1026563537 1612318999 290591118 1315674 -91472059
            -385791995 1737460692 -145228169</internalNodes>
          <leafValues>
            -7.8995656967163086e-001 7.5180667638778687e-001</leafValues></_>
        <_>
          <internalNodes>
            0 -1 119 -713599952 69503156 -787803873 -438367863
            -1336958475 76636690 136947897 -326714558</internalNodes>
          <leafValues>
            -1.1335822343826294e+000 5.3985518217086792e-001</leafValues></_>
        <_>
          <internalNodes>
            0 -1 245 1467461929 362009480 -1065331636 158908556
            1636041136 1906574176 -1940608257 1343419310</internalNodes>
          <leafValues>
            -9.2405694723129272e-001 5.6872284412384033e-001</leafValues></_>
        <_>
          <internalNodes>
            0 -1 18 -792296304 -7229114 -1458545739 -1189113765
            1276175102 -1970667389 1266811231 1885424199</internalNodes>
          <leafValues>
            -8.4370380640029907e-001 6.1479175090789795e-001</leafValues></_>
        <_>
          <internalNodes>
            0 -1 227 -199241990 -901726135 -2096767552 1879167000
            1682680032 -889542208 -1610436448 -1058803504</internalNodes>
          <leafValues>
            -9.7154718637466431e-001 5.6830477714538574e-001</leafValues></_>
        <_>
          <internalNodes>
            0 -1 38 -296489632 -1956691180 513818669 663486978 134246581
            -619681503 -645338534 1841236290</internalNodes>
          <leafValues>
            -1.0172348022460937e+000 5.3525924682617188e-001</leafValues></_>
        <_>
          <internalNodes>
            0 -1 173 1815234675 1589583743 -184553641 2067705581
            1966886640 -168271878 1877876684 -69583105</internalNodes>
          <leafValues>
            -6.3923090696334839e-001 8.0475449562072754e-001</leafValues></_>
        <_>
          <internalNodes>
            0 -1 80 1846868784 -1077620312 -803942254 822618690 52582476
            -184418292 -1179868366 -1333446654</internalNodes>
          <leafValues>
            -1.0444066524505615e+000 4.8544603586196899e-001</leafValues></_>
        <_>
          <internalNodes>
            0 -1 172 -572129415 -1742899594 -1091326503 -1111746896
            1424313693 -1259553324 -268970120 -1978930133</internalNodes>
          <leafValues>
            -6.2977522611618042e-001 7.3626929521560669e-001</leafValues></_></weakClassifiers></_>
    <!-- stage 4 -->
    <_>
      <maxWeakCount>9</maxWeakCount>
      <stageThreshold>-1.5797671079635620e+000</stageThreshold>
      <weakClassifiers>
        <_>
          <internalNodes>
            0 -1 231 1928849735 1433894431 -268534145 37743996
            -839131666 -58851465 -1686209041 -260571893</internalNodes>
          <leafValues>
            -6.2737262248992920e-001 8.9197862148284912e-001</leafValues></_>
        <_>
          <internalNodes>
            0 -1 182 1598846381 1001046744 156369373 1296939462
            1250915435 976372324 258032203 174814059</internalNodes>
          <leafValues>
            -1.1191033124923706e+000 4.9876999855041504e-001</leafValues></_>
        <_>
          <internalNodes>
            0 -1 62 -1438480394 -1576878039 165041591 -1086417639
            102951391 751207371 4393397 1154048215</internalNodes>
          <leafValues>
            -1.1889369487762451e+000 4.5003992319107056e-001</leafValues></_>
        <_>
          <internalNodes>
            0 -1 168 -893848944 -641728228 1938034910 -73661090
            562061460 233928704 -1816614440 -1142751185</internalNodes>
          <leafValues>
            -6.9678992033004761e-001 7.8499084711074829e-001</leafValues></_>
        <_>
          <internalNodes>
            0 -1 155 -565543468 -1003564752 -1795039375 -125956094
            -939236448 -57611392 -871838568 -1991273842</internalNodes>
          <leafValues>
            -7.8844773769378662e-001 6.7711842060089111e-001</leafValues></_>
        <_>
          <internalNodes>
            0 -1 14 2036588495 1963060855 -1358970958 -1413087438
            2102218565 1822228317 -310407428 -332939499</internalNodes>
          <leafValues>
            -6.5927588939666748e-001 7.9389238357543945e-001</leafValues></_>
        <_>
          <internalNodes>
            0 -1 35 1154724706 1221234832 -587186129 2103102739
            -368891690 428540028 33698493 1003202655</internalNodes>
          <leafValues>
            -9.7385728359222412e-001 5.6700444221496582e-001</leafValues></_>
        <_>
          <internalNodes>
            0 -1 82 -426532405 -1127378452 -1987686382 -259330020
            -804318339 -74710998 1796448717 -183246765</internalNodes>
          <leafValues>
            -8.1691843271255493e-001 6.1168265342712402e-001</leafValues></_>
        <_>
          <internalNodes>
            0 -1 249 1202185891 1134620951 1904294047 1746124842
            -1014255438 1120557187 -1194596198 -987235577</internalNodes>
          <leafValues>
            -6.7915713787078857e-001 7.4894142150878906e-001</leafValues></_></weakClassifiers></_>
    <!-- stage 5 -->
    <_>
      <maxWeakCount>12</maxWeakCount>
      <stageThreshold>-2.4158174991607666e+000</stageThreshold>
      <weakClassifiers>
        <_>
          <internalNodes>
            0 -1 140 220410161 -1086931336 -1375846539 -4195404
            1597880244 -1342210147 -1107355653 -1442847512</internalNodes>
          <leafValues>
            -6.1635220050811768e-001 8.0855399370193481e-001</leafValues></_>
        <_>
          <internalNodes>
            0 -1 45 -1261259872 1083746798 -795204306 -796596977
            2072380228 -202833528 -24228015 700873663</internalNodes>
          <leafValues>
            -1.3058259487152100e+000 4.0872091054916382e-001</leafValues></_>
        <_>
          <internalNodes>
            0 -1 166 -498555998 8794922 8620320 -708800256 327387055
            27830405 -712785520 -977279603</internalNodes>
          <leafValues>
            -8.9443904161453247e-001 5.6748145818710327e-001</leafValues></_>
        <_>
          <internalNodes>
            0 -1 12 -550764753 204722271 -1937634204 953872593
            1344367111 1893419145 1879305572 -10620282</internalNodes>
          <leafValues>
            -8.4757804870605469e-001 6.1905318498611450e-001</leafValues></_>
        <_>
          <internalNodes>
            0 -1 42 -1043541005 -111162293 -1053560565 -276063354
            236084087 -925073204 411263917 212669748</internalNodes>
          <leafValues>
            -8.3576875925064087e-001 5.7657575607299805e-001</leafValues></_>
        <_>
          <internalNodes>
            0 -1 244 -201870577 -161748013 -22741378 -1711296911
            -142830010 -403245227 -1074004022 -13385938</internalNodes>
          <leafValues>
            -4.4712275266647339e-001 1.0349185466766357e+000</leafValues></_>
        <_>
          <internalNodes>
            0 -1 125 1246669910 -132114408 -124514085 -101649460
            -1476359676 -317158944 -321058614 -360986309</internalNodes>
          <leafValues>
            -6.7211467027664185e-001 6.9847571849822998e-001</leafValues></_>
        <_>
          <internalNodes>
            0 -1 89 1149259796 -1148509891 -2130620045 -1426985705
            -1693873160 -1148990782 865079867 414542385</internalNodes>
          <leafValues>
            -9.3015074729919434e-001 4.9490767717361450e-001</leafValues></_>
        <_>
          <internalNodes>
            0 -1 185 -155755732 1191350534 -213888244 -2082257148
            -1463039325 70315528 -527790806 -2136806761</internalNodes>
          <leafValues>
            -8.6130964756011963e-001 5.3712010383605957e-001</leafValues></_>
        <_>
          <internalNodes>
            0 -1 92 1891663597 -1760937451 -1660937641 218921490
            -1861947986 -125190015 188979353 370206520</internalNodes>
          <leafValues>
            -7.5738620758056641e-001 6.0571318864822388e-001</leafValues></_>
        <_>
          <internalNodes>
            0 -1 219 511901758 331732311 825266600 303532240 696293440
            2032240650 -2012632276 -130220172</internalNodes>
          <leafValues>
            -8.5908669233322144e-001 4.9235337972640991e-001</leafValues></_>
        <_>
          <internalNodes>
            0 -1 188 -505705982 12738693 -263134718 -844463349
            -1551130205 1495924867 -784105181 -248720342</internalNodes>
          <leafValues>
            -7.3207521438598633e-001 5.9403479099273682e-001</leafValues></_></weakClassifiers></_>
    <!-- stage 6 -->
    <_>
      <maxWeakCount>12</maxWeakCount>
      <stageThreshold>-2.5883977413177490e+000</stageThreshold>
      <weakClassifiers>
        <_>
          <internalNodes>
            0 -1 215 138157360 134233394 998137841 -1616430351
            1010236411 -1073889289 1068447711 -1074844437</internalNodes>
          <leafValues>
            -6.1108177900314331e-001 7.9413253068923950e-001</leafValues></_>
        <_>
          <internalNodes>
            0 -1 236 -866416913 -1026373485 -2112896820 -992883492
            -144446757 -893508726 1075990592 1162146080</internalNodes>
          <leafValues>
            -1.1254297494888306e+000 4.5965439081192017e-001</leafValues></_>
        <_>
          <internalNodes>
            0 -1 148 -1293474812 2016810053 -712567689 -259909295
            -1731547229 -74938364 -918321995 -291247309</internalNodes>
          <leafValues>
            -9.3277209997177124e-001 4.9676847457885742e-001</leafValues></_>
        <_>
          <internalNodes>
            0 -1 48 940022581 -163584681 960648639 270029330 -1148587695
            -347406333 -1878978038 -469249341</internalNodes>
          <leafValues>
            -8.7406504154205322e-001 5.4812020063400269e-001</leafValues></_>
        <_>
          <internalNodes>
            0 -1 7 -1277186413 -1834245974 -1608907384 976497311
            -201562347 -139926906 -1232491275 669924299</internalNodes>
          <leafValues>
            -7.1397030353546143e-001 6.1053037643432617e-001</leafValues></_>
        <_>
          <internalNodes>
            0 -1 243 1456994274 1163094656 -268395704 196921278
            -668003674 297814402 142784779 1095881199</internalNodes>
          <leafValues>
            -9.0000313520431519e-001 5.1563727855682373e-001</leafValues></_>
        <_>
          <internalNodes>
            0 -1 136 1351125168 2035966592 671127731 458490843
            -1121279299 2098516097 1041186622 1072540309</internalNodes>
          <leafValues>
            -9.6266192197799683e-001 4.5772129297256470e-001</leafValues></_>
        <_>
          <internalNodes>
            0 -1 102 -1647866077 965804034 -1869544971 1977053205
            -645786376 -1179513976 -1718433137 -1430089982</internalNodes>
          <leafValues>
            -6.9909858703613281e-001 6.1253416538238525e-001</leafValues></_>
        <_>
          <internalNodes>
            0 -1 260 -732445917 1494452673 -821492798 306434946
            -242511624 -779223026 1023631536 -1293433024</internalNodes>
          <leafValues>
            -6.7007637023925781e-001 6.3917791843414307e-001</leafValues></_>
        <_>
          <internalNodes>
            0 -1 52 -826086238 -1248603769 296747164 -1651813947
            1008475029 1384554633 -872365939 -645257181</internalNodes>
          <leafValues>
            -6.7336994409561157e-001 6.4906913042068481e-001</leafValues></_>
        <_>
          <internalNodes>
            0 -1 186 -288782322 235964891 -2013035006 -2104770492
            -100032357 -1551720327 822250409 -33082878</internalNodes>
          <leafValues>
            -7.4684834480285645e-001 6.0490977764129639e-001</leafValues></_>
        <_>
          <internalNodes>
            0 -1 2 1607971926 1389285454 827490378 -1064788248 111358659
            -829783928 1720199001 273004512</internalNodes>
          <leafValues>
            -8.4681415557861328e-001 4.9141216278076172e-001</leafValues></_></weakClassifiers></_>
    <!-- stage 7 -->
    <_>
      <maxWeakCount>17</maxWeakCount>
      <stageThreshold>-2.3525340557098389e+000</stageThreshold>
      <weakClassifiers>
        <_>
          <internalNodes>
            0 -1 192 -196023216 -218333964 2097078135 -1615065348
            -173738508 -1217069316 1069391836 -1141960326</internalNodes>
          <leafValues>
            -5.1428574323654175e-001 8.6931490898132324e-001</leafValues></_>
        <_>
          <internalNodes>
            0 -1 98 -23080233 -1152155568 273679062 -1306886126
            -225486331 -351336442 -1323022322 -817676202</internalNodes>
          <leafValues>
            -7.9115790128707886e-001 5.9598964452743530e-001</leafValues></_>
        <_>
          <internalNodes>
            0 -1 163 138190924 1174595319 67191636 -259362677
            -1058417167 1080795318 1226963386 -529728862</internalNodes>
          <leafValues>
            -1.1145650148391724e+000 4.0867826342582703e-001</leafValues></_>
        <_>
          <internalNodes>
            0 -1 156 -1143232905 1839144989 -1852734091 1963414017
            1057308293 -74036630 -376829749 -1090286518</internalNodes>
          <leafValues>
            -6.5331935882568359e-001 7.0937979221343994e-001</leafValues></_>
        <_>
          <internalNodes>
            0 -1 126 2080779939 1737302467 -1449399557 1164056187
            -268211777 -349601165 -74291421 2087984038</internalNodes>
          <leafValues>
            -8.0363136529922485e-001 5.9251481294631958e-001</leafValues></_>
        <_>
          <internalNodes>
            0 -1 53 -1593839124 806520844 -1474526886 570605905
            995896064 67125317 1720386452 289532401</internalNodes>
          <leafValues>
            -1.2772048711776733e+000 3.4894832968711853e-001</leafValues></_>
        <_>
          <internalNodes>
            0 -1 34 -612084766 -1428252341 688507077 -550776434
            -1438125285 1871202458 327377633 128308466</internalNodes>
          <leafValues>
            -8.5459160804748535e-001 5.1559698581695557e-001</leafValues></_>
        <_>
          <internalNodes>
            0 -1 217 -1425773648 -7339852 1359061213 -716013350
            -113132886 -360152405 -473827119 -844218136</internalNodes>
          <leafValues>
            -6.5732675790786743e-001 6.5071940422058105e-001</leafValues></_>
        <_>
          <internalNodes>
            0 -1 167 -246684762 114356460 1862266732 -168544264
            -1476925761 100038645 -302570094 -709931637</internalNodes>
          <leafValues>
            -6.2586808204650879e-001 7.0382529497146606e-001</leafValues></_>
        <_>
          <internalNodes>
            0 -1 255 -339480786 1543438335 2147458813 2074533678
            -16907236 2147483218 -153095186 -782762177</internalNodes>
          <leafValues>
            -5.2739310264587402e-001 8.0076020956039429e-001</leafValues></_>
        <_>
          <internalNodes>
            0 -1 240 -590079435 -1278010359 -2126394885 -225242936
            -657915568 671088642 -107474684 -141493713</internalNodes>
          <leafValues>
            -7.3969298601150513e-001 5.5473303794860840e-001</leafValues></_>
        <_>
          <internalNodes>
            0 -1 90 -855749801 708661945 -17301905 -1192428611 -62526
            -1077958026 -1351106633 -372493457</internalNodes>
          <leafValues>
            -5.8693325519561768e-001 7.3999351263046265e-001</leafValues></_>
        <_>
          <internalNodes>
            0 -1 211 1732530292 -1441408876 1358991752 -992952260
            -1467111180 2055749635 -2145132476 1624076451</internalNodes>
          <leafValues>
            -1.2411339282989502e+000 3.4183552861213684e-001</leafValues></_>
        <_>
          <internalNodes>
            0 -1 134 -623931748 1322713221 -721387286 1469292744
            1031878955 -1826585999 1595443496 2040561832</internalNodes>
          <leafValues>
            -8.7474679946899414e-001 4.3875300884246826e-001</leafValues></_>
        <_>
          <internalNodes>
            0 -1 96 -919481117 107680012 -1291075474 591069463
            1888166383 1266924128 -1817464437 -1053523822</internalNodes>
          <leafValues>
            -5.8104634284973145e-001 6.5539723634719849e-001</leafValues></_>
        <_>
          <internalNodes>
            0 -1 190 1417734272 -1827089927 -1789695172 -1756757674
            -1023107015 1803551368 -863410152 -1077212494</internalNodes>
          <leafValues>
            -6.4232635498046875e-001 6.2564325332641602e-001</leafValues></_>
        <_>
          <internalNodes>
            0 -1 97 -994125921 -60391621 -335560705 1961820086
            2138773355 -160104457 -159394059 -1147246593</internalNodes>
          <leafValues>
            -5.4965758323669434e-001 7.0377165079116821e-001</leafValues></_></weakClassifiers></_>
    <!-- stage 8 -->
    <_>
      <maxWeakCount>14</maxWeakCount>
      <stageThreshold>-2.1959252357482910e+000</stageThreshold>
      <weakClassifiers>
        <_>
          <internalNodes>
            0 -1 193 -719257900 268458000 -1600874511 -1780187056
            -670063696 -1248558955 -1441809752 142672041</internalNodes>
          <leafValues>
            -7.2394186258316040e-001 6.8064659833908081e-001</leafValues></_>
        <_>
          <internalNodes>
            0 -1 204 1657217674 848626013 1344229853 830677345 276825149
            1889601720 1219029259 -74962737</internalNodes>
          <leafValues>
            -9.1417336463928223e-001 4.9522483348846436e-001</leafValues></_>
        <_>
          <internalNodes>
            0 -1 220 2059358911 7489216 -2096646249 660644774 887202229
            1994459283 -1517649367 -1057622018</internalNodes>
          <leafValues>
            -7.7867758274078369e-001 6.0116893053054810e-001</leafValues></_>
        <_>
          <internalNodes>
            0 -1 50 579904019 -1694183325 -551839467 -600927668 3308267
            -1415505390 1305436567 1118176753</internalNodes>
          <leafValues>
            -1.2213693857192993e+000 3.7339156866073608e-001</leafValues></_>
        <_>
          <internalNodes>
            0 -1 11 -776734105 1391263517 2130575345 -139198671
            -1770061993 -360775809 1475737573 -1124223182</internalNodes>
          <leafValues>
            -5.9904539585113525e-001 7.6793223619461060e-001</leafValues></_>
        <_>
          <internalNodes>
            0 -1 238 -565768951 1560629340 473007694 39139397
            -1315192440 -584251127 1783300813 -1191851468</internalNodes>
          <leafValues>
            -7.6628494262695313e-001 5.6950241327285767e-001</leafValues></_>
        <_>
          <internalNodes>
            0 -1 26 282517764 766030319 1167659460 -1098456662
            -677358745 -611800948 571000740 1137409010</internalNodes>
          <leafValues>
            -1.1868276596069336e+000 4.0601730346679688e-001</leafValues></_>
        <_>
          <internalNodes>
            0 -1 41 -117463127 1884020847 -1040162294 848138397
            1795891729 2015887617 -29181148 -1943047773</internalNodes>
          <leafValues>
            -7.3134189844131470e-001 5.8950650691986084e-001</leafValues></_>
        <_>
          <internalNodes>
            0 -1 224 10767528 482627864 -1249132111 630690137 1354293228
            -327112000 -1450518104 -1010388603</internalNodes>
          <leafValues>
            -8.4760820865631104e-001 4.8173162341117859e-001</leafValues></_>
        <_>
          <internalNodes>
            0 -1 144 -29970798 -89313605 -266244 -1242304986 2103725168
            -664774412 -247169560 -341631517</internalNodes>
          <leafValues>
            -5.9419131278991699e-001 7.0101815462112427e-001</leafValues></_>
        <_>
          <internalNodes>
            0 -1 131 1247610428 -1721841193 -1878763830 -24214958
            1380244056 -2147434391 -783567030 108440164</internalNodes>
          <leafValues>
            -1.1812797784805298e+000 3.5048547387123108e-001</leafValues></_>
        <_>
          <internalNodes>
            0 -1 70 -999242975 288035470 1342244111 -804060903
            -1752754122 -765812286 457266647 -872389921</internalNodes>
          <leafValues>
            -7.2370189428329468e-001 5.9802830219268799e-001</leafValues></_>
        <_>
          <internalNodes>
            0 -1 233 1408569984 -1467358685 54952462 875622785 76891780
            1646535179 -2096261086 1226948854</internalNodes>
          <leafValues>
            -1.0240556001663208e+000 3.9954370260238647e-001</leafValues></_>
        <_>
          <internalNodes>
            0 -1 122 1561641587 1360015779 122164637 1441516029
            -2129110722 1388372627 2046900804 210820209</internalNodes>
          <leafValues>
            -8.0250376462936401e-001 4.8059552907943726e-001</leafValues></_></weakClassifiers></_>
    <!-- stage 9 -->
    <_>
      <maxWeakCount>14</maxWeakCount>
      <stageThreshold>-2.4687163829803467e+000</stageThreshold>
      <weakClassifiers>
        <_>
          <internalNodes>
            0 -1 95 2033250301 461331679 787935229 201080729 -8470529
            738197495 259850109 792706351</internalNodes>
          <leafValues>
            -6.4474457502365112e-001 6.9617336988449097e-001</leafValues></_>
        <_>
          <internalNodes>
            0 -1 8 -1703955129 733118806 1360337296 -273532516
            1364769559 1884919927 1372294289 -51131889</internalNodes>
          <leafValues>
            -7.4431771039962769e-001 5.9327095746994019e-001</leafValues></_>
        <_>
          <internalNodes>
            0 -1 195 1468332820 -1072634576 -1075478529 -550027916
            1565799879 -1672413935 -537934613 -1960189397</internalNodes>
          <leafValues>
            -6.3305413722991943e-001 6.8141114711761475e-001</leafValues></_>
        <_>
          <internalNodes>
            0 -1 242 -864029757 -428149342 -1434101593 -251139881
            -224270605 1214794374 -726945648 -995886686</internalNodes>
          <leafValues>
            -7.0717948675155640e-001 6.2802594900131226e-001</leafValues></_>
        <_>
          <internalNodes>
            0 -1 150 -514464981 -1371512440 269080895 -1408151272
            -1987532737 1830488099 -1073690255 -327014139</internalNodes>
          <leafValues>
            -8.7505769729614258e-001 4.8940461874008179e-001</leafValues></_>
        <_>
          <internalNodes>
            0 -1 64 1920344682 1086891155 -1221410385 -228683490
            1178658104 -645920631 -747984861 -322074138</internalNodes>
          <leafValues>
            -1.0020589828491211e+000 4.0480032563209534e-001</leafValues></_>
        <_>
          <internalNodes>
            0 -1 210 -310193020 1018749839 1368046069 -1519120241
            -937897800 -938246142 -388630356 -2104522205</internalNodes>
          <leafValues>
            -6.5740722417831421e-001 6.3898545503616333e-001</leafValues></_>
        <_>
          <internalNodes>
            0 -1 43 -570592453 -1292894545 -268451905 -1048578 985152218
            -5331972 2130673509 -100833849</internalNodes>
          <leafValues>
            -4.9066051840782166e-001 8.9802992343902588e-001</leafValues></_>
        <_>
          <internalNodes>
            0 -1 65 -1307331719 1477603430 -788494062 842039300
            -763353575 -48000958 168514346 -313138418</internalNodes>
          <leafValues>
            -7.3377203941345215e-001 5.8997434377670288e-001</leafValues></_>
        <_>
          <internalNodes>
            0 -1 72 -1881755965 -1260853174 -225389295 -1242130337
            134228141 -384746469 1134072281 -1381060476</internalNodes>
          <leafValues>
            -7.7599173784255981e-001 5.2209585905075073e-001</leafValues></_>
        <_>
          <internalNodes>
            0 -1 146 -2130184090 -778500603 1090625717 -215852942
            -1597568559 -473247730 -994043758 -1473112512</internalNodes>
          <leafValues>
            -7.6427298784255981e-001 5.2118563652038574e-001</leafValues></_>
        <_>
          <internalNodes>
            0 -1 17 275251410 1867055572 -1845354233 -1919713188
            1216891595 1286210210 1778926345 1696350919</internalNodes>
          <leafValues>
            -9.4577872753143311e-001 4.1924363374710083e-001</leafValues></_>
        <_>
          <internalNodes>
            0 -1 40 -203953661 -235470913 989297267 984612657 -545267876
            -940179495 1602223218 -1803831338</internalNodes>
          <leafValues>
            -5.8039218187332153e-001 6.9685953855514526e-001</leafValues></_>
        <_>
          <internalNodes>
            0 -1 213 -531422712 5439760 1220579486 818170896 295781140
            1879189544 -1177711656 -216865880</internalNodes>
          <leafValues>
            -9.6583640575408936e-001 4.0471100807189941e-001</leafValues></_></weakClassifiers></_>
    <!-- stage 10 -->
    <_>
      <maxWeakCount>15</maxWeakCount>
      <stageThreshold>-2.0406808853149414e+000</stageThreshold>
      <weakClassifiers>
        <_>
          <internalNodes>
            0 -1 226 -276306949 -637358936 -272667856 -1428034160
            -29548629 -1103429733 -252156000 -1431568470</internalNodes>
          <leafValues>
            -5.7202506065368652e-001 7.7096116542816162e-001</leafValues></_>
        <_>
          <internalNodes>
            0 -1 101 87049623 934765051 1619067383 2146779295 117487867
            -1149009463 -918521047 811603301</internalNodes>
          <leafValues>
            -7.6519012451171875e-001 5.8818084001541138e-001</leafValues></_>
        <_>
          <internalNodes>
            0 -1 106 -1689939528 634730951 -519724901 1335199881
            402702265 -1163341681 -746479573 898574344</internalNodes>
          <leafValues>
            -8.7585526704788208e-001 4.8996105790138245e-001</leafValues></_>
        <_>
          <internalNodes>
            0 -1 60 -2138943070 -1568485034 1145266674 -2067364879
            554898224 -317007862 1393126593 -1530134055</internalNodes>
          <leafValues>
            -1.3395580053329468e+000 3.5088700056076050e-001</leafValues></_>
        <_>
          <internalNodes>
            0 -1 124 -255703350 -703250280 144202398 1443348575
            1359168512 -268369905 -947631520 -12631269</internalNodes>
          <leafValues>
            -8.5968238115310669e-001 4.5886841416358948e-001</leafValues></_>
        <_>
          <internalNodes>
            0 -1 256 1267165603 117203851 -1610309610 1024764086
            943792290 1576239362 -1836078577 1164744412</internalNodes>
          <leafValues>
            -8.4305065870285034e-001 5.0024843215942383e-001</leafValues></_>
        <_>
          <internalNodes>
            0 -1 223 -749481948 219584818 142791156 827091225
            -2004162309 -1741127632 -1476392727 -1542215291</internalNodes>
          <leafValues>
            -8.0093330144882202e-001 5.1542830467224121e-001</leafValues></_>
        <_>
          <internalNodes>
            0 -1 112 855588638 -100991240 -278483078 -219419078
            -143530763 -996382864 -1419995864 -1689283894</internalNodes>
          <leafValues>
            -6.0983693599700928e-001 7.1610015630722046e-001</leafValues></_>
        <_>
          <internalNodes>
            0 -1 55 -1827166271 2081567703 -719321062 1009447376
            1101750880 -1106557933 -1985279104 1796590046</internalNodes>
          <leafValues>
            -8.2606101036071777e-001 4.9607497453689575e-001</leafValues></_>
        <_>
          <internalNodes>
            0 -1 39 1999894269 355119095 1056763068 -1343750276
            1341982147 -893538443 -59308562 -572785865</internalNodes>
          <leafValues>
            -4.4330349564552307e-001 8.5369765758514404e-001</leafValues></_>
        <_>
          <internalNodes>
            0 -1 63 -212549565 -339069461 -510551616 377900429
            -1465660412 -1144937462 46824110 -1408484877</internalNodes>
          <leafValues>
            -6.7252063751220703e-001 5.7471132278442383e-001</leafValues></_>
        <_>
          <internalNodes>
            0 -1 110 -297663472 -891418020 185279360 1209727805
            -1011780942 1620017312 21860952 -1676281120</internalNodes>
          <leafValues>
            -1.0835850238800049e+000 3.5973995923995972e-001</leafValues></_>
        <_>
          <internalNodes>
            0 -1 206 -312761052 -159248118 -1064810040 -1764829998
            -402282668 386401025 -1828218227 -742283192</internalNodes>
          <leafValues>
            -6.6775178909301758e-001 5.3603410720825195e-001</leafValues></_>
        <_>
          <internalNodes>
            0 -1 5 -73925374 -1421328122 -787394866 -2025815848
            193345958 -74973055 1075536883 -917907466</internalNodes>
          <leafValues>
            -6.4754009246826172e-001 5.7680749893188477e-001</leafValues></_>
        <_>
          <internalNodes>
            0 -1 49 -594575369 -14733386 -587202817 1342148605
            -1392529670 -1931161611 2117357039 -1345378585</internalNodes>
          <leafValues>
            -3.7894606590270996e-001 9.0024542808532715e-001</leafValues></_></weakClassifiers></_>
    <!-- stage 11 -->
    <_>
      <maxWeakCount>16</maxWeakCount>
      <stageThreshold>-1.8737057447433472e+000</stageThreshold>
      <weakClassifiers>
        <_>
          <internalNodes>
            0 -1 200 2111141765 768704944 824717655 1004484994
            1200059129 -1342126080 533022727 977370647</internalNodes>
          <leafValues>
            -1.0009756088256836e+000 5.0509309768676758e-001</leafValues></_>
        <_>
          <internalNodes>
            0 -1 44 127181765 -979222384 -243151547 924502156 1154213867
            -1574014847 1678635587 32634725</internalNodes>
          <leafValues>
            -1.0102558135986328e+000 4.2205232381820679e-001</leafValues></_>
        <_>
          <internalNodes>
            0 -1 129 587630476 -1596192067 -686115884 -1443211200
            335553224 -1350430541 2005551837 1392391000</internalNodes>
          <leafValues>
            -1.2219467163085937e+000 3.6225119233131409e-001</leafValues></_>
        <_>
          <internalNodes>
            0 -1 177 1323156957 990331925 -528415137 -1429962345
            1640549083 1536855058 2032340570 -1473141945</internalNodes>
          <leafValues>
            -6.9443976879119873e-001 6.4270633459091187e-001</leafValues></_>
        <_>
          <internalNodes>
            0 -1 153 1351922640 -791904107 -1056959330 421331030
            830539856 572523392 151268221 1256653057</internalNodes>
          <leafValues>
            -8.6317145824432373e-001 4.9739319086074829e-001</leafValues></_>
        <_>
          <internalNodes>
            0 -1 27 -489135054 -221065128 1296138738 1734521220
            436242758 336596187 34853538 1487800671</internalNodes>
          <leafValues>
            -9.8775702714920044e-001 3.9870348572731018e-001</leafValues></_>
        <_>
          <internalNodes>
            0 -1 115 -770801448 -1166898860 1343343152 -1324579488
            -509474700 -50034664 -930991496 1074073186</internalNodes>
          <leafValues>
            -9.7884345054626465e-001 3.9737424254417419e-001</leafValues></_>
        <_>
          <internalNodes>
            0 -1 56 -2125794928 -816824046 -2146870967 -2004756579
            1518679581 -2002747236 67510744 232607920</internalNodes>
          <leafValues>
            -1.1266367435455322e+000 3.3908808231353760e-001</leafValues></_>
        <_>
          <internalNodes>
            0 -1 259 1112621760 865386760 443617311 303042903 713599834
            1908605952 -1199457493 974613073</internalNodes>
          <leafValues>
            -8.3852201700210571e-001 5.0224083662033081e-001</leafValues></_>
        <_>
          <internalNodes>
            0 -1 184 660025924 133581154 -888011443 -1145003956
            -376782879 1078206472 157891104 545446711</internalNodes>
          <leafValues>
            -1.1200338602066040e+000 3.9311188459396362e-001</leafValues></_>
        <_>
          <internalNodes>
            0 -1 16 1491574669 1964559487 281264938 -1079934805
            1309641664 1007411297 1409483305 -1403006657</internalNodes>
          <leafValues>
            -6.3036352396011353e-001 5.9405839443206787e-001</leafValues></_>
        <_>
          <internalNodes>
            0 -1 257 -255878735 -1611092510 1879008293 -1438842884
            -708844431 -2013921418 886539476 -170016774</internalNodes>
          <leafValues>
            -4.8513743281364441e-001 7.6298594474792480e-001</leafValues></_>
        <_>
          <internalNodes>
            0 -1 100 -1327839009 -633319349 345260181 -2033345415
            2015430658 -379977656 -660940728 -143696121</internalNodes>
          <leafValues>
            -5.9852731227874756e-001 6.0827910900115967e-001</leafValues></_>
        <_>
          <internalNodes>
            0 -1 132 1519260176 -1201655498 1518502062 -659815466
            1115901804 -240795607 948472068 1283898168</internalNodes>
          <leafValues>
            -9.7456520795822144e-001 3.5981488227844238e-001</leafValues></_>
        <_>
          <internalNodes>
            0 -1 130 2034543853 -1182685479 -250560469 352682029
            79705099 -1740311619 1224858667 1898807850</internalNodes>
          <leafValues>
            -6.8987852334976196e-001 5.1091474294662476e-001</leafValues></_>
        <_>
          <internalNodes>
            0 -1 142 -266093866 370521801 1385267550 -638500540
            -762977112 79700481 708968488 1091006824</internalNodes>
          <leafValues>
            -7.3194688558578491e-001 4.8174047470092773e-001</leafValues></_></weakClassifiers></_>
    <!-- stage 12 -->
    <_>
      <maxWeakCount>13</maxWeakCount>
      <stageThreshold>-2.1939949989318848e+000</stageThreshold>
      <weakClassifiers>
        <_>
          <internalNodes>
            0 -1 37 -284180557 638042666 1040713860 1732259841
            1083948415 237698594 892809591 1155200358</internalNodes>
          <leafValues>
            -9.0189611911773682e-001 5.6637835502624512e-001</leafValues></_>
        <_>
          <internalNodes>
            0 -1 222 -771693744 -546820765 -1358962959 -72060559
            -1525639950 -336314411 1158807453 -544927467</internalNodes>
          <leafValues>
            -5.9967863559722900e-001 7.2209894657135010e-001</leafValues></_>
        <_>
          <internalNodes>
            0 -1 246 -711466177 1711186853 2145337020 -470032714
            -2123299977 611547127 -1078937606 -1108085321</internalNodes>
          <leafValues>
            -5.6973379850387573e-001 7.4693655967712402e-001</leafValues></_>
        <_>
          <internalNodes>
            0 -1 33 1886661810 -791572019 -778845773 -675327533
            1076414889 1848127984 1029735663 753356131</internalNodes>
          <leafValues>
            -7.3903989791870117e-001 5.6460160017013550e-001</leafValues></_>
        <_>
          <internalNodes>
            0 -1 31 -219225489 974372168 -405387001 -2128247999
            1948367949 126566472 1569795649 -221444031</internalNodes>
          <leafValues>
            -7.7952611446380615e-001 5.0610947608947754e-001</leafValues></_>
        <_>
          <internalNodes>
            0 -1 107 -1063230336 -238681832 201346137 -1660545022
            -1115681824 -1600122600 -1300052592 908136720</internalNodes>
          <leafValues>
            -8.9616280794143677e-001 4.4158819317817688e-001</leafValues></_>
        <_>
          <internalNodes>
            0 -1 253 -810906081 1436015510 1078260958 -876326706
            1183517140 1279983874 -693196593 1701051502</internalNodes>
          <leafValues>
            -6.5770959854125977e-001 6.2444937229156494e-001</leafValues></_>
        <_>
          <internalNodes>
            0 -1 159 79963376 369499660 -691039779 -1322546745
            -1464560335 -892615159 202231810 581240368</internalNodes>
          <leafValues>
            -1.2706449031829834e+000 3.1120514869689941e-001</leafValues></_>
        <_>
          <internalNodes>
            0 -1 251 -872350863 1086656926 352931095 -1395883172
            466596481 1804109993 1225884660 -386489684</internalNodes>
          <leafValues>
            -7.1080642938613892e-001 5.6501662731170654e-001</leafValues></_>
        <_>
          <internalNodes>
            0 -1 22 -2139843708 1376228806 -1341554276 -674040827
            -1261669500 -712228042 151735199 703097469</internalNodes>
          <leafValues>
            -9.7330456972122192e-001 4.2444568872451782e-001</leafValues></_>
        <_>
          <internalNodes>
            0 -1 133 757016620 18432189 1355062588 109072863 639517391
            1899528353 310453034 35773941</internalNodes>
          <leafValues>
            -1.2448233366012573e+000 3.0981451272964478e-001</leafValues></_>
        <_>
          <internalNodes>
            0 -1 91 -206114657 -537591881 1861743601 -1652737025
            -1359106137 1055719423 1560272115 -1887980655</internalNodes>
          <leafValues>
            -4.3600392341613770e-001 9.0212380886077881e-001</leafValues></_>
        <_>
          <internalNodes>
            0 -1 237 1515523358 257561945 -1638248112 4265764 -704345709
            -1396074367 1602769072 142361196</internalNodes>
          <leafValues>
            -9.7974115610122681e-001 4.0110823512077332e-001</leafValues></_></weakClassifiers></_>
    <!-- stage 13 -->
    <_>
      <maxWeakCount>14</maxWeakCount>
      <stageThreshold>-2.2160804271697998e+000</stageThreshold>
      <weakClassifiers>
        <_>
          <internalNodes>
            0 -1 6 -1656752543 600744133 1649000736 -1711157044
            1074000973 576893571 1725395220 1639447529</internalNodes>
          <leafValues>
            -7.9529410600662231e-001 5.4909509420394897e-001</leafValues></_>
        <_>
          <internalNodes>
            0 -1 170 2138955767 1067117912 -402685955 792460479
            1025834954 -1527765036 -536985829 1065039451</internalNodes>
          <leafValues>
            -5.7403790950775146e-001 6.9492793083190918e-001</leafValues></_>
        <_>
          <internalNodes>
            0 -1 162 2069323535 298365578 -2130656850 -673667672
            1947145417 -551223263 -1610224504 -51646230</internalNodes>
          <leafValues>
            -6.2384927272796631e-001 6.1219137907028198e-001</leafValues></_>
        <_>
          <internalNodes>
            0 -1 54 -757598125 -1462445610 353655970 809957568
            -1157176699 -1876196664 1095250707 -734593434</internalNodes>
          <leafValues>
            -9.5417237281799316e-001 4.3020823597908020e-001</leafValues></_>
        <_>
          <internalNodes>
            0 -1 191 1937570320 45444 587410809 755188892 -1876840144
            361021573 726514474 144022187</internalNodes>
          <leafValues>
            -8.2698917388916016e-001 4.8696228861808777e-001</leafValues></_>
        <_>
          <internalNodes>
            0 -1 74 1314620800 223656082 -1794027439 -1931726739
            58916995 -160910912 1092694225 -1524971488</internalNodes>
          <leafValues>
            -9.4499802589416504e-001 4.3239861726760864e-001</leafValues></_>
        <_>
          <internalNodes>
            0 -1 127 1733877924 1621842743 -1042169458 282116634
            -1874853664 -645234560 88178732 2031377272</internalNodes>
          <leafValues>
            -9.3769240379333496e-001 4.4358539581298828e-001</leafValues></_>
        <_>
          <internalNodes>
            0 -1 239 -2489590 -548220717 -1920872246 650576536
            1493371216 1093767191 -156872068 1746336615</internalNodes>
          <leafValues>
            -9.7090947628021240e-001 3.9827427268028259e-001</leafValues></_>
        <_>
          <internalNodes>
            0 -1 108 -803065224 -732116596 -2079532961 2101351241
            -526802560 -192931566 -921584966 144745231</internalNodes>
          <leafValues>
            -6.6418790817260742e-001 5.5126374959945679e-001</leafValues></_>
        <_>
          <internalNodes>
            0 -1 20 475957800 -718634720 -2078400372 17597120 1883251567
            -1082079104 2063427585 673544457</internalNodes>
          <leafValues>
            -1.0844887495040894e+000 3.6905831098556519e-001</leafValues></_>
        <_>
          <internalNodes>
            0 -1 187 -305167870 516420 -842711032 -1601613389 -528173756
            50332288 1657111218 -2087464949</internalNodes>
          <leafValues>
            -7.7166140079498291e-001 4.8336142301559448e-001</leafValues></_>
        <_>
          <internalNodes>
            0 -1 83 -573858579 525047003 -1610609573 16815062 -116901604
            2064125491 965356360 1363359811</internalNodes>
          <leafValues>
            -7.8461855649948120e-001 4.7974154353141785e-001</leafValues></_>
        <_>
          <internalNodes>
            0 -1 58 -733992782 219172994 -669986793 -962858999 604569979
            1248821667 2005533223 1322002196</internalNodes>
          <leafValues>
            -9.9060773849487305e-001 3.7542945146560669e-001</leafValues></_>
        <_>
          <internalNodes>
            0 -1 47 -224566321 1523487724 1480642716 948100560 323488751
            1312859136 -488496434 -1408776687</internalNodes>
          <leafValues>
            -6.3047242164611816e-001 6.3422995805740356e-001</leafValues></_></weakClassifiers></_>
    <!-- stage 14 -->
    <_>
      <maxWeakCount>16</maxWeakCount>
      <stageThreshold>-1.8403866291046143e+000</stageThreshold>
      <weakClassifiers>
        <_>
          <internalNodes>
            0 -1 141 69280801 1584823411 1878502005 -674308 931002359
            -1644240131 2134865396 -570464899</internalNodes>
          <leafValues>
            -6.1311280727386475e-001 6.6544288396835327e-001</leafValues></_>
        <_>
          <internalNodes>
            0 -1 181 615451431 1305588372 318881877 -539774461
            -477400498 -662056826 -710541400 -12416444</internalNodes>
          <leafValues>
            -7.6437324285507202e-001 5.3667175769805908e-001</leafValues></_>
        <_>
          <internalNodes>
            0 -1 252 -431227929 672667767 -218005193 -1404715563
            1618706431 -2104823403 1085620421 -1024589833</internalNodes>
          <leafValues>
            -6.2603950500488281e-001 6.2521469593048096e-001</leafValues></_>
        <_>
          <internalNodes>
            0 -1 230 1057141169 301990416 1501908273 365680340
            -1174013311 -1164410720 -2101050667 -1614820216</internalNodes>
          <leafValues>
            -6.1180979013442993e-001 6.2653094530105591e-001</leafValues></_>
        <_>
          <internalNodes>
            0 -1 137 52866 26364464 -2058692332 29366289 1259589055
            -1207383927 44600046 460894056</internalNodes>
          <leafValues>
            -1.1817920207977295e+000 3.5011810064315796e-001</leafValues></_>
        <_>
          <internalNodes>
            0 -1 46 -411285261 333088042 -1332219718 552997615
            1393198149 -318203765 1401630386 1963756205</internalNodes>
          <leafValues>
            -7.2624099254608154e-001 5.7341068983078003e-001</leafValues></_>
        <_>
          <internalNodes>
            0 -1 171 -956577828 1812791454 -1996418256 2125512816
            269689929 -785266009 -221572846 -794600926</internalNodes>
          <leafValues>
            -8.3093822002410889e-001 4.7694310545921326e-001</leafValues></_>
        <_>
          <internalNodes>
            0 -1 221 -1085545948 1126234688 402798753 -524107443
            207753268 357725314 -904851399 -1526208096</internalNodes>
          <leafValues>
            -1.0518836975097656e+000 3.5327464342117310e-001</leafValues></_>
        <_>
          <internalNodes>
            0 -1 71 -373246085 486691176 -920604331 -1216016293
            1209371315 -658470905 -1043357523 -2078572160</internalNodes>
          <leafValues>
            -6.1775422096252441e-001 6.0614252090454102e-001</leafValues></_>
        <_>
          <internalNodes>
            0 -1 87 -1705308063 422757675 352486872 -758725390 822353992
            -643399636 -1664030282 -1654696698</internalNodes>
          <leafValues>
            -7.4625045061111450e-001 5.2544742822647095e-001</leafValues></_>
        <_>
          <internalNodes>
            0 -1 174 -153318353 -1073873217 -285803695 -973357515
            804581324 -12583066 -1074671909 -1370921307</internalNodes>
          <leafValues>
            -4.9402210116386414e-001 7.8376555442810059e-001</leafValues></_>
        <_>
          <internalNodes>
            0 -1 120 1441788542 891780359 -1376862209 -1846415753
            -59769718 -766019652 1400785962 -2000218155</internalNodes>
          <leafValues>
            -4.7274887561798096e-001 7.2663575410842896e-001</leafValues></_>
        <_>
          <internalNodes>
            0 -1 201 688866614 1540111696 -1056718001 94437649 42339737
            -1467998080 839254366 1909145671</internalNodes>
          <leafValues>
            -8.8093400001525879e-001 3.9518839120864868e-001</leafValues></_>
        <_>
          <internalNodes>
            0 -1 183 -2039822034 -1382792794 38338562 -119963134
            -1832574572 -94875391 817974883 2054224598</internalNodes>
          <leafValues>
            -7.5085699558258057e-001 4.3757471442222595e-001</leafValues></_>
        <_>
          <internalNodes>
            0 -1 250 -1585708780 571770802 -1877933487 -1971232250
            1745265071 428484611 1350217954 1146889731</internalNodes>
          <leafValues>
            -8.8180243968963623e-001 3.9612179994583130e-001</leafValues></_>
        <_>
          <internalNodes>
            0 -1 263 -769400117 791385357 1593934548 -192429430
            168018738 10698880 1756012571 832151568</internalNodes>
          <leafValues>
            -6.3318467140197754e-001 5.3720933198928833e-001</leafValues></_></weakClassifiers></_>
    <!-- stage 15 -->
    <_>
      <maxWeakCount>16</maxWeakCount>
      <stageThreshold>-2.4960048198699951e+000</stageThreshold>
      <weakClassifiers>
        <_>
          <internalNodes>
            0 -1 99 -135010577 -92688775 2120873726 1884487348
            2112835078 2004209271 -729909810 -42541502</internalNodes>
          <leafValues>
            -5.5821371078491211e-001 7.3430436849594116e-001</leafValues></_>
        <_>
          <internalNodes>
            0 -1 261 215460386 33866401 -83154478 178667772 1066731652
            -834404352 -1736037830 1348792156</internalNodes>
          <leafValues>
            -1.1065100431442261e+000 3.7778285145759583e-001</leafValues></_>
        <_>
          <internalNodes>
            0 -1 169 -659243056 -168755363 2061434741 2009034620
            -146473484 -1074782217 -1754200151 -1141163734</internalNodes>
          <leafValues>
            -5.1431751251220703e-001 7.7497464418411255e-001</leafValues></_>
        <_>
          <internalNodes>
            0 -1 149 108734721 549650829 -1652353570 -292040547 8583834
            -938764900 -863933062 -326462781</internalNodes>
          <leafValues>
            -7.8441756963729858e-001 5.2325487136840820e-001</leafValues></_>
        <_>
          <internalNodes>
            0 -1 145 -256573552 1091867032 278024665 -786954872
            1163395348 -468659566 -1703307129 -267408805</internalNodes>
          <leafValues>
            -7.1060431003570557e-001 5.5060946941375732e-001</leafValues></_>
        <_>
          <internalNodes>
            0 -1 214 67388470 1843483026 117507348 -1656712626
            1554259530 -2135647984 -1860579652 1119912072</internalNodes>
          <leafValues>
            -1.0994817018508911e+000 3.4022650122642517e-001</leafValues></_>
        <_>
          <internalNodes>
            0 -1 61 836454863 1253784488 -218373188 1039122367 -84619
            -17008649 1962901377 1766780923</internalNodes>
          <leafValues>
            -5.9171819686889648e-001 7.3301988840103149e-001</leafValues></_>
        <_>
          <internalNodes>
            0 -1 128 508474372 -286736379 -637007780 -618462834
            -393806600 -805254780 -353816299 -624653794</internalNodes>
          <leafValues>
            -1.0395066738128662e+000 3.9232388138771057e-001</leafValues></_>
        <_>
          <internalNodes>
            0 -1 165 -1832131422 318801552 -1044310944 1162055689
            63947151 0 -627448925 -2060730035</internalNodes>
          <leafValues>
            -6.4081537723541260e-001 5.4971957206726074e-001</leafValues></_>
        <_>
          <internalNodes>
            0 -1 178 -1302737819 -740601745 -805056423 2089762906
            184854767 2109935836 403933429 -1935523532</internalNodes>
          <leafValues>
            -5.4545611143112183e-001 6.2357646226882935e-001</leafValues></_>
        <_>
          <internalNodes>
            0 -1 86 779095536 595226882 -1488944860 103493672 1230517731
            8478961 -1183303071 610602249</internalNodes>
          <leafValues>
            -1.4996718168258667e+000 2.1410824358463287e-001</leafValues></_>
        <_>
          <internalNodes>
            0 -1 19 842431058 -2146434478 9503048 -1014738192 1258255955
            -1659268983 1621690707 111702016</internalNodes>
          <leafValues>
            -1.2690199613571167e+000 2.5105416774749756e-001</leafValues></_>
        <_>
          <internalNodes>
            0 -1 203 -93852022 -67780629 -285480006 -155730051
            1433687629 -1502216323 -185032501 -751517714</internalNodes>
          <leafValues>
            -5.2058780193328857e-001 6.8106400966644287e-001</leafValues></_>
        <_>
          <internalNodes>
            0 -1 247 -536874049 -67308889 1050558136 -154681666
            1295466742 486503893 2146778366 -1130627790</internalNodes>
          <leafValues>
            -3.7643939256668091e-001 8.7827408313751221e-001</leafValues></_>
        <_>
          <internalNodes>
            0 -1 113 -545343617 -1082695815 2138885980 291090291
            -303595567 524017652 796900808 -902751614</internalNodes>
          <leafValues>
            -5.2150434255599976e-001 6.6779679059982300e-001</leafValues></_>
        <_>
          <internalNodes>
            0 -1 21 -1671643053 738563465 -1810791413 -1329441343
            -258913044 868878589 279447647 -993961732</internalNodes>
          <leafValues>
            -6.0906368494033813e-001 5.9448462724685669e-001</leafValues></_></weakClassifiers></_>
    <!-- stage 16 -->
    <_>
      <maxWeakCount>17</maxWeakCount>
      <stageThreshold>-2.3428626060485840e+000</stageThreshold>
      <weakClassifiers>
        <_>
          <internalNodes>
            0 -1 29 -857239990 -1575332278 -738106926 -1635088818
            1363540291 1114460192 1695082770 1961030656</internalNodes>
          <leafValues>
            -1.0033222436904907e+000 4.4392052292823792e-001</leafValues></_>
        <_>
          <internalNodes>
            0 -1 241 -1928991759 -125200076 -402554434 -896565114
            1343874431 424276331 1116332256 -871380870</internalNodes>
          <leafValues>
            -6.5482449531555176e-001 5.9206461906433105e-001</leafValues></_>
        <_>
          <internalNodes>
            0 -1 208 3545940 1050280226 1393592691 -1617999911 1050788
            -1315799040 -246714981 -1079039733</internalNodes>
          <leafValues>
            -6.4831191301345825e-001 5.8338296413421631e-001</leafValues></_>
        <_>
          <internalNodes>
            0 -1 85 211026336 -2138812264 1342375982 -669875945
            -1954010064 -1493119860 -637458427 -1382538258</internalNodes>
          <leafValues>
            -1.4788208007812500e+000 2.6583179831504822e-001</leafValues></_>
        <_>
          <internalNodes>
            0 -1 157 1251014304 1217337133 -1467952438 145544270
            687950756 -897545792 1690372778 1932130168</internalNodes>
          <leafValues>
            -9.9598830938339233e-001 3.6399430036544800e-001</leafValues></_>
        <_>
          <internalNodes>
            0 -1 84 -1541870797 -218049398 807523731 -1561557689
            1252002751 2041842434 2038976882 -1847022269</internalNodes>
          <leafValues>
            -7.0864534378051758e-001 5.1923429965972900e-001</leafValues></_>
        <_>
          <internalNodes>
            0 -1 105 443875856 773096275 776096778 169559202 495564991
            -737875967 -1820084941 295373440</internalNodes>
          <leafValues>
            -1.2993638515472412e+000 2.7189451456069946e-001</leafValues></_>
        <_>
          <internalNodes>
            0 -1 199 -2649949 -681033869 -419744962 -51347530
            -1245719111 -713048193 -25407280 -646686913</internalNodes>
          <leafValues>
            -5.5561721324920654e-001 6.9567799568176270e-001</leafValues></_>
        <_>
          <internalNodes>
            0 -1 78 1077957728 -1442692521 -1877532275 982679685
            336248848 1654718608 -2004106549 1051035654</internalNodes>
          <leafValues>
            -1.1486029624938965e+000 3.5266119241714478e-001</leafValues></_>
        <_>
          <internalNodes>
            0 -1 117 -255794160 -641965172 1073894489 -1885398076
            -1610581584 -402030416 -95927556 1059074355</internalNodes>
          <leafValues>
            -7.1979916095733643e-001 5.2719002962112427e-001</leafValues></_>
        <_>
          <internalNodes>
            0 -1 229 1817339640 -401700527 1393641568 1141184932
            -1551135781 1758602209 1074479872 1094791496</internalNodes>
          <leafValues>
            -1.1216114759445190e+000 3.2856303453445435e-001</leafValues></_>
        <_>
          <internalNodes>
            0 -1 262 -539842770 1964970005 -552307320 2111820810
            1786981124 1372438988 -369517910 -1035535887</internalNodes>
          <leafValues>
            -6.0869544744491577e-001 5.8223760128021240e-001</leafValues></_>
        <_>
          <internalNodes>
            0 -1 24 1855334762 -863706816 1342227524 -2113761272
            1845909562 177832578 824284932 552073077</internalNodes>
          <leafValues>
            -1.1747249364852905e+000 2.9111808538436890e-001</leafValues></_>
        <_>
          <internalNodes>
            0 -1 154 -268439587 -1666928897 -100696687 -17384907
            -973321014 -537797443 1760922963 -1457037821</internalNodes>
          <leafValues>
            -5.0008171796798706e-001 7.1055370569229126e-001</leafValues></_>
        <_>
          <internalNodes>
            0 -1 138 -1534746108 -1179446719 -1727737471 1706917905
            -92044537 42139656 944751111 -890959684</internalNodes>
          <leafValues>
            -7.1456569433212280e-001 4.9699229001998901e-001</leafValues></_>
        <_>
          <internalNodes>
            0 -1 264 -324024466 1899495423 -1343029306 -17891602
            -713668831 -168706073 -713361474 -361780411</internalNodes>
          <leafValues>
            -5.6839442253112793e-001 6.0420179367065430e-001</leafValues></_>
        <_>
          <internalNodes>
            0 -1 164 1120674746 -292934894 17979829 487718950 1658865781
            722079745 1117083884 -528435048</internalNodes>
          <leafValues>
            -8.8139021396636963e-001 3.8055008649826050e-001</leafValues></_></weakClassifiers></_>
    <!-- stage 17 -->
    <_>
      <maxWeakCount>15</maxWeakCount>
      <stageThreshold>-1.9795266389846802e+000</stageThreshold>
      <weakClassifiers>
        <_>
          <internalNodes>
            0 -1 23 -1156580685 1466531727 -1493309510 -474284114
            -1342185505 -1966081 763328343 -994056778</internalNodes>
          <leafValues>
            -4.1789710521697998e-001 8.1572479009628296e-001</leafValues></_>
        <_>
          <internalNodes>
            0 -1 176 273617003 1648706200 -1731005968 1104309986
            -1584922528 790758146 -2098898694 1416249299</internalNodes>
          <leafValues>
            -9.7374689579010010e-001 4.0173846483230591e-001</leafValues></_>
        <_>
          <internalNodes>
            0 -1 212 128597176 1630539832 -2129415582 -115584122
            -833913608 -861108042 -268476716 -959592304</internalNodes>
          <leafValues>
            -9.0834015607833862e-001 4.0660005807876587e-001</leafValues></_>
        <_>
          <internalNodes>
            0 -1 179 -1493867870 45437187 134418016 12883586 807545840
            541270147 -1182758134 1249811346</internalNodes>
          <leafValues>
            -1.0228328704833984e+000 3.5202327370643616e-001</leafValues></_>
        <_>
          <internalNodes>
            0 -1 228 -1926563952 -1708630749 -1212156495 -1780089550
            -843071489 -1635844108 532309432 -1142239591</internalNodes>
          <leafValues>
            -5.4629367589950562e-001 6.5066576004028320e-001</leafValues></_>
        <_>
          <internalNodes>
            0 -1 116 -156896505 -630382213 -508431430 -37780593
            -120091748 1220050944 1622737141 622971397</internalNodes>
          <leafValues>
            -5.9113842248916626e-001 6.3363462686538696e-001</leafValues></_>
        <_>
          <internalNodes>
            0 -1 10 -522024630 42080030 -1996323804 -1684929919
            1348250949 1625901057 1520012321 1727005283</internalNodes>
          <leafValues>
            -1.2941546440124512e+000 3.0253708362579346e-001</leafValues></_>
        <_>
          <internalNodes>
            0 -1 207 -1135548976 -1197432636 294093173 -1188277992
            -1563692672 -1331642230 -1966926384 152700984</internalNodes>
          <leafValues>
            -8.6763459444046021e-001 4.1841521859169006e-001</leafValues></_>
        <_>
          <internalNodes>
            0 -1 114 -1226130220 -1711258284 277398672 944162088
            740328260 2017992715 335673422 1349540643</internalNodes>
          <leafValues>
            -1.1313757896423340e+000 2.9128786921501160e-001</leafValues></_>
        <_>
          <internalNodes>
            0 -1 175 820039336 -1109680082 1409467037 -1165917037
            562113304 707806241 -133608462 -1740571855</internalNodes>
          <leafValues>
            -8.2464796304702759e-001 4.2142215371131897e-001</leafValues></_>
        <_>
          <internalNodes>
            0 -1 161 141537451 -1849110321 286270039 -1073212904
            687966850 -963583974 -1165756725 -1474107670</internalNodes>
          <leafValues>
            -6.9558107852935791e-001 5.1774811744689941e-001</leafValues></_>
        <_>
          <internalNodes>
            0 -1 209 236195360 664737366 17093005 820629505 -1953824619
            -544501624 -398455396 979404548</internalNodes>
          <leafValues>
            -1.0826210975646973e+000 3.1236329674720764e-001</leafValues></_>
        <_>
          <internalNodes>
            0 -1 189 -898915582 67408074 -788504572 -976060270
            1674642452 58884162 8645364 2138661652</internalNodes>
          <leafValues>
            -8.0928862094879150e-001 4.3660235404968262e-001</leafValues></_>
        <_>
          <internalNodes>
            0 -1 75 -506671366 -1924975550 704684480 -577789227
            550090382 1775312928 -1325318110 -2064658384</internalNodes>
          <leafValues>
            -5.4805493354797363e-001 5.9725224971771240e-001</leafValues></_>
        <_>
          <internalNodes>
            0 -1 225 704888983 -1668001605 1081646 -2095464423 802359350
            1824137283 11493702 1968502869</internalNodes>
          <leafValues>
            -7.5113552808761597e-001 4.4360157847404480e-001</leafValues></_></weakClassifiers></_>
    <!-- stage 18 -->
    <_>
      <maxWeakCount>17</maxWeakCount>
      <stageThreshold>-1.8682246208190918e+000</stageThreshold>
      <weakClassifiers>
        <_>
          <internalNodes>
            0 -1 88 -1568393031 -888036987 1342443785 -719292327
            -1959517975 -2080362352 885704875 -1929202944</internalNodes>
          <leafValues>
            -8.7375116348266602e-001 4.8546510934829712e-001</leafValues></_>
        <_>
          <internalNodes>
            0 -1 32 -1308605424 -141961116 1090563805 -1892185127
            1679575218 -930559823 411911381 1419068966</internalNodes>
          <leafValues>
            -1.0387338399887085e+000 3.4292587637901306e-001</leafValues></_>
        <_>
          <internalNodes>
            0 -1 135 1515555240 1225295063 -1610514295 -113410022
            952142389 1882747207 -2033833557 1970110638</internalNodes>
          <leafValues>
            -9.6294718980789185e-001 3.8396474719047546e-001</leafValues></_>
        <_>
          <internalNodes>
            0 -1 111 40182016 -1620989267 402751500 1936761513
            1500538272 -359649186 1621625084 -1405572857</internalNodes>
          <leafValues>
            -9.5817065238952637e-001 3.7553986907005310e-001</leafValues></_>
        <_>
          <internalNodes>
            0 -1 143 -960249280 711463362 -1508437408 -1399318388
            -401491760 -520778791 1681868144 75815973</internalNodes>
          <leafValues>
            -1.6064285039901733e+000 2.1522353589534760e-001</leafValues></_>
        <_>
          <internalNodes>
            0 -1 57 -2142140284 43727356 539044171 281202705 -1203487396
            -922712864 1149341517 18748238</internalNodes>
          <leafValues>
            -1.1927497386932373e+000 2.8529068827629089e-001</leafValues></_>
        <_>
          <internalNodes>
            0 -1 198 1759257120 -786943966 -566090979 -1873804282
            82430112 -670727739 -1475803095 929373441</internalNodes>
          <leafValues>
            -1.3119045495986938e+000 2.7409809827804565e-001</leafValues></_>
        <_>
          <internalNodes>
            0 -1 123 -388316964 -1291675370 302957776 2073985208
            -669777856 1099104394 1477761128 -9478544</internalNodes>
          <leafValues>
            -7.2298318147659302e-001 4.5615032315254211e-001</leafValues></_>
        <_>
          <internalNodes>
            0 -1 93 876609540 -1066925189 -1601056764 1082770857
            -2138332160 981599232 1085843620 201955969</internalNodes>
          <leafValues>
            -1.5442121028900146e+000 2.2090275585651398e-001</leafValues></_>
        <_>
          <internalNodes>
            0 -1 103 1238771167 639142196 -2136880966 -2121202277
            -645816192 8455811 981535900 1796085374</internalNodes>
          <leafValues>
            -6.0652709007263184e-001 6.1100882291793823e-001</leafValues></_>
        <_>
          <internalNodes>
            0 -1 180 950779180 1414865601 1343247955 1348108547
            539517034 1080266803 -243234630 -588255521</internalNodes>
          <leafValues>
            -6.1477112770080566e-001 5.5783623456954956e-001</leafValues></_>
        <_>
          <internalNodes>
            0 -1 9 1606210013 316915871 -2137521986 -2129412018
            402769829 -1273354101 1627546371 1973874730</internalNodes>
          <leafValues>
            -5.7613337039947510e-001 5.6062805652618408e-001</leafValues></_>
        <_>
          <internalNodes>
            0 -1 194 -670029520 2123891280 -918044401 -1626209922
            -2021068560 -1689743349 1674099080 496502348</internalNodes>
          <leafValues>
            -8.3333182334899902e-001 3.8797256350517273e-001</leafValues></_>
        <_>
          <internalNodes>
            0 -1 51 -709138253 1998552956 2129854453 -1477918990
            -1477201925 2118090749 -2326699 2032498940</internalNodes>
          <leafValues>
            -4.4103041291236877e-001 7.0267200469970703e-001</leafValues></_>
        <_>
          <internalNodes>
            0 -1 13 1215695136 180621322 944659398 570523668 -725126323
            -1792933693 1240879204 12863344</internalNodes>
          <leafValues>
            -1.2446380853652954e+000 2.5490957498550415e-001</leafValues></_>
        <_>
          <internalNodes>
            0 -1 25 1335225865 -1676622830 -536836088 -370915303
            1146132371 774149186 806382684 59663177</internalNodes>
          <leafValues>
            -7.7074980735778809e-001 3.9209830760955811e-001</leafValues></_>
        <_>
          <internalNodes>
            0 -1 68 -1243750497 1855908794 -486621584 -436278917
            -1212833839 -1807207305 -1160430469 -1332808466</internalNodes>
          <leafValues>
            -4.6485891938209534e-001 6.2274110317230225e-001</leafValues></_></weakClassifiers></_>
    <!-- stage 19 -->
    <_>
      <maxWeakCount>18</maxWeakCount>
      <stageThreshold>-2.0991177558898926e+000</stageThreshold>
      <weakClassifiers>
        <_>
          <internalNodes>
            0 -1 160 1751193884 -1504050936 -970844387 1921765787
            40438819 1175552016 -1999077559 566451357</internalNodes>
          <leafValues>
            -9.6092927455902100e-001 4.3646410107612610e-001</leafValues></_>
        <_>
          <internalNodes>
            0 -1 0 916112992 -1130626994 -754905828 -1902935806
            1267281847 721422467 1092687815 70342342</internalNodes>
          <leafValues>
            -1.2663148641586304e+000 2.7895677089691162e-001</leafValues></_>
        <_>
          <internalNodes>
            0 -1 205 -286818262 -186399605 -870790968 -1063006205
            1361085461 1376977154 -1283282038 -718943647</internalNodes>
          <leafValues>
            -7.1917444467544556e-001 5.2136629819869995e-001</leafValues></_>
        <_>
          <internalNodes>
            0 -1 118 -727705564 -1004527065 1124149751 554369560 8961399
            975339553 -2146809448 941309960</internalNodes>
          <leafValues>
            -1.1898931264877319e+000 3.2846039533615112e-001</leafValues></_>
        <_>
          <internalNodes>
            0 -1 28 243275808 -494090980 1359126536 1694777346 741109831
            1268912584 1082687654 1691619539</internalNodes>
          <leafValues>
            -1.3181468248367310e+000 2.7212154865264893e-001</leafValues></_>
        <_>
          <internalNodes>
            0 -1 197 -1564990451 -1538045620 1879048909 580449365
            -1333225107 -1609428820 1904920813 -1422122668</internalNodes>
          <leafValues>
            -9.4801920652389526e-001 4.0369355678558350e-001</leafValues></_>
        <_>
          <internalNodes>
            0 -1 248 1828348975 -208130377 -1367367690 872398319
            -420062822 1416920775 -16777570 -423663891</internalNodes>
          <leafValues>
            -5.0835263729095459e-001 7.4007982015609741e-001</leafValues></_>
        <_>
          <internalNodes>
            0 -1 230 913732628 646086832 1895944389 -1215802872
            437275017 310911114 -1961178987 -577135416</internalNodes>
          <leafValues>
            -7.8204452991485596e-001 4.7577273845672607e-001</leafValues></_>
        <_>
          <internalNodes>
            0 -1 4 -1315263648 1644286088 16900256 542671078 1485249869
            32770 1485375942 344840226</internalNodes>
          <leafValues>
            -9.5811182260513306e-001 4.0905982255935669e-001</leafValues></_>
        <_>
          <internalNodes>
            0 -1 94 -670948079 -1257474927 -2080302951 1653230098
            -334962535 680190117 -1962565608 1436907987</internalNodes>
          <leafValues>
            -7.0137149095535278e-001 5.1830393075942993e-001</leafValues></_>
        <_>
          <internalNodes>
            0 -1 104 831810562 482480434 -713015849 -405683710 437844781
            -2147450750 -1014292143 2026536962</internalNodes>
          <leafValues>
            -8.5424423217773438e-001 3.9767637848854065e-001</leafValues></_>
        <_>
          <internalNodes>
            0 -1 196 -294148574 -1767385135 -131329 1839372112
            -1074460770 -9079211 905895599 -952543489</internalNodes>
          <leafValues>
            -5.3630578517913818e-001 6.6261070966720581e-001</leafValues></_>
        <_>
          <internalNodes>
            0 -1 258 13550994 -1840062090 -2130591456 1661854534
            1343918106 -586923891 -1325164156 1388368972</internalNodes>
          <leafValues>
            -7.4757838249206543e-001 4.5132797956466675e-001</leafValues></_>
        <_>
          <internalNodes>
            0 -1 235 1191664517 -243072511 286920840 -1325399896
            1458518971 -880148079 1494759089 -2070633709</internalNodes>
          <leafValues>
            -6.0378646850585938e-001 5.4873406887054443e-001</leafValues></_>
        <_>
          <internalNodes>
            0 -1 152 1464890994 -481574509 16794132 668975925 26291097
            -1048567796 -1547648491 199439703</internalNodes>
          <leafValues>
            -5.8145064115524292e-001 5.5031830072402954e-001</leafValues></_>
        <_>
          <internalNodes>
            0 -1 15 -151519559 1929183166 -17423 1680309795 -679485477
            -1359183881 2004810968 -856195084</internalNodes>
          <leafValues>
            -4.5468756556510925e-001 7.0420908927917480e-001</leafValues></_>
        <_>
          <internalNodes>
            0 -1 168 -2072973360 1508128758 1609416445 -571404678
            -1621719564 1061502823 -1879284402 -1082444758</internalNodes>
          <leafValues>
            -4.8763379454612732e-001 6.2851351499557495e-001</leafValues></_>
        <_>
          <internalNodes>
            0 -1 151 -1070580112 -1439284834 -1693757409 1631518882
            1700823317 -1711112061 1107935745 -2064530452</internalNodes>
          <leafValues>
            -1.0528112649917603e+000 2.7782055735588074e-001</leafValues></_></weakClassifiers></_></stages>
  <features>
    <_>
      <rect>
        0 0 5 5</rect></_>
    <_>
      <rect>
        0 0 5 6</rect></_>
    <_>
      <rect>
        0 3 3 6</rect></_>
    <_>
      <rect>
        0 3 5 5</rect></_>
    <_>
      <rect>
        0 5 2 4</rect></_>
    <_>
      <rect>
        0 5 3 4</rect></_>
    <_>
      <rect>
        0 5 4 8</rect></_>
    <_>
      <rect>
        0 5 10 9</rect></_>
    <_>
      <rect>
        0 7 5 8</rect></_>
    <_>
      <rect>
        0 9 2 3</rect></_>
    <_>
      <rect>
        0 9 5 7</rect></_>
    <_>
      <rect>
        0 11 7 7</rect></_>
    <_>
      <rect>
        0 12 3 4</rect></_>
    <_>
      <rect>
        0 14 2 4</rect></_>
    <_>
      <rect>
        0 14 4 6</rect></_>
    <_>
      <rect>
        0 14 8 6</rect></_>
    <_>
      <rect>
        0 17 4 5</rect></_>
    <_>
      <rect>
        1 0 8 3</rect></_>
    <_>
      <rect>
        1 0 9 3</rect></_>
    <_>
      <rect>
        1 1 4 6</rect></_>
    <_>
      <rect>
        1 1 4 10</rect></_>
    <_>
      <rect>
        1 1 9 9</rect></_>
    <_>
      <rect>
        1 1 9 10</rect></_>
    <_>
      <rect>
        1 4 2 4</rect></_>
    <_>
      <rect>
        1 5 4 5</rect></_>
    <_>
      <rect>
        1 6 3 5</rect></_>
    <_>
      <rect>
        1 6 10 7</rect></_>
    <_>
      <rect>
        1 7 7 3</rect></_>
    <_>
      <rect>
        1 7 7 4</rect></_>
    <_>
      <rect>
        1 8 4 6</rect></_>
    <_>
      <rect>
        1 9 3 5</rect></_>
    <_>
      <rect>
        1 13 4 4</rect></_>
    <_>
      <rect>
        2 0 6 3</rect></_>
    <_>
      <rect>
        2 0 8 4</rect></_>
    <_>
      <rect>
        2 1 3 4</rect></_>
    <_>
      <rect>
        2 5 10 4</rect></_>
    <_>
      <rect>
        2 6 10 6</rect></_>
    <_>
      <rect>
        2 7 3 3</rect></_>
    <_>
      <rect>
        2 9 7 5</rect></_>
    <_>
      <rect>
        2 11 2 7</rect></_>
    <_>
      <rect>
        2 16 7 5</rect></_>
    <_>
      <rect>
        2 17 2 3</rect></_>
    <_>
      <rect>
        3 0 3 4</rect></_>
    <_>
      <rect>
        3 0 8 8</rect></_>
    <_>
      <rect>
        3 2 3 7</rect></_>
    <_>
      <rect>
        3 3 8 9</rect></_>
    <_>
      <rect>
        3 8 9 8</rect></_>
    <_>
      <rect>
        3 16 2 4</rect></_>
    <_>
      <rect>
        3 20 4 3</rect></_>
    <_>
      <rect>
        4 0 5 3</rect></_>
    <_>
      <rect>
        4 1 4 6</rect></_>
    <_>
      <rect>
        4 5 5 9</rect></_>
    <_>
      <rect>
        4 15 4 3</rect></_>
    <_>
      <rect>
        4 16 2 3</rect></_>
    <_>
      <rect>
        4 17 6 5</rect></_>
    <_>
      <rect>
        4 18 2 4</rect></_>
    <_>
      <rect>
        5 0 2 5</rect></_>
    <_>
      <rect>
        5 1 8 10</rect></_>
    <_>
      <rect>
        5 2 5 2</rect></_>
    <_>
      <rect>
        5 3 4 3</rect></_>
    <_>
      <rect>
        5 4 6 9</rect></_>
    <_>
      <rect>
        5 4 8 9</rect></_>
    <_>
      <rect>
        5 6 3 3</rect></_>
    <_>
      <rect>
        5 8 8 7</rect></_>
    <_>
      <rect>
        5 14 7 5</rect></_>
    <_>
      <rect>
        5 17 2 4</rect></_>
    <_>
      <rect>
        5 19 3 3</rect></_>
    <_>
      <rect>
        5 21 4 3</rect></_>
    <_>
      <rect>
        5 23 5 3</rect></_>
    <_>
      <rect>
        6 2 6 6</rect></_>
    <_>
      <rect>
        6 2 6 9</rect></_>
    <_>
      <rect>
        6 3 2 4</rect></_>
    <_>
      <rect>
        6 3 3 3</rect></_>
    <_>
      <rect>
        6 3 7 5</rect></_>
    <_>
      <rect>
        6 4 4 2</rect></_>
    <_>
      <rect>
        6 9 1 2</rect></_>
    <_>
      <rect>
        6 11 6 3</rect></_>
    <_>
      <rect>
        6 13 3 5</rect></_>
    <_>
      <rect>
        6 13 4 4</rect></_>
    <_>
      <rect>
        6 14 3 4</rect></_>
    <_>
      <rect>
        6 16 3 4</rect></_>
    <_>
      <rect>
        6 19 1 2</rect></_>
    <_>
      <rect>
        6 20 2 2</rect></_>
    <_>
      <rect>
        6 25 3 2</rect></_>
    <_>
      <rect>
        7 2 5 3</rect></_>
    <_>
      <rect>
        7 2 6 10</rect></_>
    <_>
      <rect>
        7 6 3 6</rect></_>
    <_>
      <rect>
        7 21 2 2</rect></_>
    <_>
      <rect>
        8 0 2 7</rect></_>
    <_>
      <rect>
        8 0 7 3</rect></_>
    <_>
      <rect>
        8 2 6 9</rect></_>
    <_>
      <rect>
        8 5 3 4</rect></_>
    <_>
      <rect>
        8 8 3 4</rect></_>
    <_>
      <rect>
        8 9 7 6</rect></_>
    <_>
      <rect>
        8 10 2 3</rect></_>
    <_>
      <rect>
        8 10 3 4</rect></_>
    <_>
      <rect>
        8 14 8 6</rect></_>
    <_>
      <rect>
        8 20 1 1</rect></_>
    <_>
      <rect>
        8 22 2 2</rect></_>
    <_>
      <rect>
        8 24 1 1</rect></_>
    <_>
      <rect>
        8 24 3 2</rect></_>
    <_>
      <rect>
        9 0 6 2</rect></_>
    <_>
      <rect>
        9 1 6 4</rect></_>
    <_>
      <rect>
        9 2 6 10</rect></_>
    <_>
      <rect>
        9 6 4 2</rect></_>
    <_>
      <rect>
        9 7 4 6</rect></_>
    <_>
      <rect>
        9 11 4 3</rect></_>
    <_>
      <rect>
        9 13 1 1</rect></_>
    <_>
      <rect>
        9 13 2 1</rect></_>
    <_>
      <rect>
        9 13 5 6</rect></_>
    <_>
      <rect>
        9 14 6 6</rect></_>
    <_>
      <rect>
        9 15 2 3</rect></_>
    <_>
      <rect>
        9 19 2 2</rect></_>
    <_>
      <rect>
        9 20 2 3</rect></_>
    <_>
      <rect>
        9 25 3 2</rect></_>
    <_>
      <rect>
        9 26 4 2</rect></_>
    <_>
      <rect>
        10 8 6 7</rect></_>
    <_>
      <rect>
        10 13 1 1</rect></_>
    <_>
      <rect>
        10 13 6 4</rect></_>
    <_>
      <rect>
        10 13 7 4</rect></_>
    <_>
      <rect>
        10 14 2 1</rect></_>
    <_>
      <rect>
        10 14 4 3</rect></_>
    <_>
      <rect>
        10 17 3 5</rect></_>
    <_>
      <rect>
        10 24 2 2</rect></_>
    <_>
      <rect>
        10 25 2 1</rect></_>
    <_>
      <rect>
        10 25 3 2</rect></_>
    <_>
      <rect>
        11 1 7 10</rect></_>
    <_>
      <rect>
        11 2 7 6</rect></_>
    <_>
      <rect>
        11 5 4 9</rect></_>
    <_>
      <rect>
        11 7 3 3</rect></_>
    <_>
      <rect>
        11 7 3 5</rect></_>
    <_>
      <rect>
        11 7 3 7</rect></_>
    <_>
      <rect>
        11 8 4 3</rect></_>
    <_>
      <rect>
        11 8 7 5</rect></_>
    <_>
      <rect>
        11 10 3 3</rect></_>
    <_>
      <rect>
        11 11 3 3</rect></_>
    <_>
      <rect>
        11 12 3 4</rect></_>
    <_>
      <rect>
        11 13 2 3</rect></_>
    <_>
      <rect>
        11 14 3 5</rect></_>
    <_>
      <rect>
        11 15 3 1</rect></_>
    <_>
      <rect>
        11 16 1 1</rect></_>
    <_>
      <rect>
        11 17 1 1</rect></_>
    <_>
      <rect>
        11 18 2 2</rect></_>
    <_>
      <rect>
        11 18 5 3</rect></_>
    <_>
      <rect>
        11 22 2 1</rect></_>
    <_>
      <rect>
        11 23 3 3</rect></_>
    <_>
      <rect>
        12 0 5 5</rect></_>
    <_>
      <rect>
        12 1 6 4</rect></_>
    <_>
      <rect>
        12 3 4 4</rect></_>
    <_>
      <rect>
        12 6 3 2</rect></_>
    <_>
      <rect>
        12 8 4 1</rect></_>
    <_>
      <rect>
        12 11 4 7</rect></_>
    <_>
      <rect>
        12 17 2 4</rect></_>
    <_>
      <rect>
        12 21 2 1</rect></_>
    <_>
      <rect>
        12 23 4 3</rect></_>
    <_>
      <rect>
        12 25 3 2</rect></_>
    <_>
      <rect>
        13 1 4 4</rect></_>
    <_>
      <rect>
        13 2 6 5</rect></_>
    <_>
      <rect>
        13 3 4 3</rect></_>
    <_>
      <rect>
        13 8 3 6</rect></_>
    <_>
      <rect>
        13 9 4 5</rect></_>
    <_>
      <rect>
        13 11 1 2</rect></_>
    <_>
      <rect>
        13 13 2 1</rect></_>
    <_>
      <rect>
        13 14 5 4</rect></_>
    <_>
      <rect>
        13 15 3 3</rect></_>
    <_>
      <rect>
        13 16 1 1</rect></_>
    <_>
      <rect>
        13 17 1 1</rect></_>
    <_>
      <rect>
        13 18 1 1</rect></_>
    <_>
      <rect>
        13 21 1 1</rect></_>
    <_>
      <rect>
        13 22 1 1</rect></_>
    <_>
      <rect>
        13 22 2 2</rect></_>
    <_>
      <rect>
        13 22 4 3</rect></_>
    <_>
      <rect>
        13 23 3 3</rect></_>
    <_>
      <rect>
        13 25 1 1</rect></_>
    <_>
      <rect>
        14 0 3 2</rect></_>
    <_>
      <rect>
        14 0 5 2</rect></_>
    <_>
      <rect>
        14 0 6 9</rect></_>
    <_>
      <rect>
        14 1 5 2</rect></_>
    <_>
      <rect>
        14 4 3 3</rect></_>
    <_>
      <rect>
        14 4 6 9</rect></_>
    <_>
      <rect>
        14 5 6 7</rect></_>
    <_>
      <rect>
        14 7 1 1</rect></_>
    <_>
      <rect>
        14 8 3 5</rect></_>
    <_>
      <rect>
        14 8 5 8</rect></_>
    <_>
      <rect>
        14 9 6 6</rect></_>
    <_>
      <rect>
        14 10 6 5</rect></_>
    <_>
      <rect>
        14 14 1 1</rect></_>
    <_>
      <rect>
        14 16 1 1</rect></_>
    <_>
      <rect>
        14 17 1 1</rect></_>
    <_>
      <rect>
        14 17 1 2</rect></_>
    <_>
      <rect>
        14 21 1 1</rect></_>
    <_>
      <rect>
        14 21 2 1</rect></_>
    <_>
      <rect>
        14 22 1 1</rect></_>
    <_>
      <rect>
        14 22 2 1</rect></_>
    <_>
      <rect>
        14 23 1 1</rect></_>
    <_>
      <rect>
        14 24 2 2</rect></_>
    <_>
      <rect>
        15 2 5 10</rect></_>
    <_>
      <rect>
        15 4 2 2</rect></_>
    <_>
      <rect>
        15 5 3 4</rect></_>
    <_>
      <rect>
        15 8 3 3</rect></_>
    <_>
      <rect>
        15 9 3 4</rect></_>
    <_>
      <rect>
        15 13 2 2</rect></_>
    <_>
      <rect>
        15 13 4 5</rect></_>
    <_>
      <rect>
        15 16 1 1</rect></_>
    <_>
      <rect>
        15 16 2 1</rect></_>
    <_>
      <rect>
        15 17 1 1</rect></_>
    <_>
      <rect>
        15 18 1 1</rect></_>
    <_>
      <rect>
        15 22 1 1</rect></_>
    <_>
      <rect>
        15 25 1 1</rect></_>
    <_>
      <rect>
        16 3 3 2</rect></_>
    <_>
      <rect>
        16 14 4 3</rect></_>
    <_>
      <rect>
        16 15 4 5</rect></_>
    <_>
      <rect>
        16 16 3 3</rect></_>
    <_>
      <rect>
        16 17 1 1</rect></_>
    <_>
      <rect>
        16 17 2 3</rect></_>
    <_>
      <rect>
        16 25 1 1</rect></_>
    <_>
      <rect>
        16 26 1 1</rect></_>
    <_>
      <rect>
        16 27 1 1</rect></_>
    <_>
      <rect>
        17 1 4 3</rect></_>
    <_>
      <rect>
        17 1 5 2</rect></_>
    <_>
      <rect>
        17 5 5 9</rect></_>
    <_>
      <rect>
        17 12 5 4</rect></_>
    <_>
      <rect>
        17 13 1 1</rect></_>
    <_>
      <rect>
        17 14 4 3</rect></_>
    <_>
      <rect>
        17 16 2 2</rect></_>
    <_>
      <rect>
        17 17 5 5</rect></_>
    <_>
      <rect>
        17 22 2 2</rect></_>
    <_>
      <rect>
        17 22 3 2</rect></_>
    <_>
      <rect>
        17 25 1 1</rect></_>
    <_>
      <rect>
        17 25 3 2</rect></_>
    <_>
      <rect>
        17 26 1 1</rect></_>
    <_>
      <rect>
        18 2 4 4</rect></_>
    <_>
      <rect>
        18 9 4 4</rect></_>
    <_>
      <rect>
        18 9 4 7</rect></_>
    <_>
      <rect>
        18 16 1 1</rect></_>
    <_>
      <rect>
        18 16 3 5</rect></_>
    <_>
      <rect>
        18 22 3 3</rect></_>
    <_>
      <rect>
        19 0 4 4</rect></_>
    <_>
      <rect>
        19 2 3 3</rect></_>
    <_>
      <rect>
        19 8 3 3</rect></_>
    <_>
      <rect>
        19 9 1 1</rect></_>
    <_>
      <rect>
        19 18 2 3</rect></_>
    <_>
      <rect>
        19 22 2 2</rect></_>
    <_>
      <rect>
        20 6 4 8</rect></_>
    <_>
      <rect>
        20 7 1 1</rect></_>
    <_>
      <rect>
        20 7 4 6</rect></_>
    <_>
      <rect>
        20 8 3 6</rect></_>
    <_>
      <rect>
        20 10 3 5</rect></_>
    <_>
      <rect>
        20 11 4 7</rect></_>
    <_>
      <rect>
        20 12 4 5</rect></_>
    <_>
      <rect>
        20 14 3 6</rect></_>
    <_>
      <rect>
        20 19 1 1</rect></_>
    <_>
      <rect>
        20 20 2 3</rect></_>
    <_>
      <rect>
        21 5 3 6</rect></_>
    <_>
      <rect>
        21 20 2 2</rect></_>
    <_>
      <rect>
        22 9 2 3</rect></_>
    <_>
      <rect>
        22 10 3 6</rect></_>
    <_>
      <rect>
        22 16 1 2</rect></_>
    <_>
      <rect>
        23 0 3 7</rect></_>
    <_>
      <rect>
        23 1 3 2</rect></_>
    <_>
      <rect>
        23 3 3 5</rect></_>
    <_>
      <rect>
        23 6 3 7</rect></_>
    <_>
      <rect>
        23 12 2 2</rect></_>
    <_>
      <rect>
        23 14 3 4</rect></_>
    <_>
      <rect>
        25 5 2 3</rect></_></features></cascade>
</opencv_storage>
